<?xml version="1.0"?>
<opencv_storage>
<xml type_id="opencv-haar-classifier">
  <size>
    10 10</size>
  <stages>
    <_>
      <!-- stage 0 -->
      <trees>
        <_>
          <!-- tree 0 -->
          <_>
            <!-- root node -->
            <feature>
              <rects>
                <_>
                  0 4 6 4 -1.</_>
                <_>
                  3 4 3 4 2.</_></rects>
              <tilted>0</tilted></feature>
            <threshold>-1.0027640312910080e-001</threshold>
            <left_val>6.2547397613525391e-001</left_val>
            <right_val>-8.0098742246627808e-001</right_val></_></_>
        <_>
          <!-- tree 1 -->
          <_>
            <!-- root node -->
            <feature>
              <rects>
                <_>
                  2 1 6 9 -1.</_>
                <_>
                  2 4 6 3 3.</_></rects>
              <tilted>0</tilted></feature>
            <threshold>-2.0740699768066406e-001</threshold>
            <left_val>4.6769550442695618e-001</left_val>
            <right_val>-6.6208088397979736e-001</right_val></_></_>
        <_>
          <!-- tree 2 -->
          <_>
            <!-- root node -->
            <feature>
              <rects>
                <_>
                  0 4 8 5 -1.</_>
                <_>
                  4 4 4 5 2.</_></rects>
              <tilted>0</tilted></feature>
            <threshold>-1.9705660641193390e-001</threshold>
            <left_val>3.4081420302391052e-001</left_val>
            <right_val>-6.7354500293731689e-001</right_val></_></_></trees>
      <stage_threshold>-1.1222540140151978e+000</stage_threshold>
      <parent>-1</parent>
      <next>-1</next></_>
    <_>
      <!-- stage 1 -->
      <trees>
        <_>
          <!-- tree 0 -->
          <_>
            <!-- root node -->
            <feature>
              <rects>
                <_>
                  1 4 6 4 -1.</_>
                <_>
                  4 4 3 4 2.</_></rects>
              <tilted>0</tilted></feature>
            <threshold>-1.8806339800357819e-001</threshold>
            <left_val>5.5265367031097412e-001</left_val>
            <right_val>-5.4165500402450562e-001</right_val></_></_>
        <_>
          <!-- tree 1 -->
          <_>
            <!-- root node -->
            <feature>
              <rects>
                <_>
                  3 1 4 9 -1.</_>
                <_>
                  3 4 4 3 3.</_></rects>
              <tilted>0</tilted></feature>
            <threshold>-2.8724861145019531e-001</threshold>
            <left_val>5.1744747161865234e-001</left_val>
            <right_val>-4.4653961062431335e-001</right_val></_></_>
        <_>
          <!-- tree 2 -->
          <_>
            <!-- root node -->
            <feature>
              <rects>
                <_>
                  0 1 6 9 -1.</_>
                <_>
                  3 1 3 9 2.</_></rects>
              <tilted>0</tilted></feature>
            <threshold>-8.8182002305984497e-002</threshold>
            <left_val>2.0101240277290344e-001</left_val>
            <right_val>-6.5265852212905884e-001</right_val></_></_>
        <_>
          <!-- tree 3 -->
          <_>
            <!-- root node -->
            <feature>
              <rects>
                <_>
                  1 0 8 8 -1.</_>
                <_>
                  1 4 8 4 2.</_></rects>
              <tilted>0</tilted></feature>
            <threshold>-1.6500359773635864e-001</threshold>
            <left_val>2.6913818717002869e-001</left_val>
            <right_val>-4.9181470274925232e-001</right_val></_></_>
        <_>
          <!-- tree 4 -->
          <_>
            <!-- root node -->
            <feature>
              <rects>
                <_>
                  0 0 10 10 -1.</_>
                <_>
                  5 0 5 10 2.</_></rects>
              <tilted>0</tilted></feature>
            <threshold>-8.8333827257156372e-001</threshold>
            <left_val>-8.8768810033798218e-001</left_val>
            <right_val>1.0731820017099380e-001</right_val></_></_>
        <_>
          <!-- tree 5 -->
          <_>
            <!-- root node -->
            <feature>
              <rects>
                <_>
                  3 5 4 3 -1.</_>
                <_>
                  3 5 2 3 2.</_></rects>
              <tilted>0</tilted></feature>
            <threshold>1.0634560137987137e-001</threshold>
            <left_val>-1.9837799668312073e-001</left_val>
            <right_val>4.9387928843498230e-001</right_val></_></_>
        <_>
          <!-- tree 6 -->
          <_>
            <!-- root node -->
            <feature>
              <rects>
                <_>
                  0 6 9 4 -1.</_>
                <_>
                  0 8 9 2 2.</_></rects>
              <tilted>0</tilted></feature>
            <threshold>-1.7766440287232399e-002</threshold>
            <left_val>-6.3390702009201050e-001</left_val>
            <right_val>1.3896159827709198e-001</right_val></_></_>
        <_>
          <!-- tree 7 -->
          <_>
            <!-- root node -->
            <feature>
              <rects>
                <_>
                  1 3 9 3 -1.</_>
                <_>
                  4 3 3 3 3.</_></rects>
              <tilted>0</tilted></feature>
            <threshold>-2.2566929459571838e-001</threshold>
            <left_val>3.4587758779525757e-001</left_val>
            <right_val>-3.1146639585494995e-001</right_val></_></_>
        <_>
          <!-- tree 8 -->
          <_>
            <!-- root node -->
            <feature>
              <rects>
                <_>
                  0 0 4 10 -1.</_>
                <_>
                  0 5 4 5 2.</_></rects>
              <tilted>0</tilted></feature>
            <threshold>-2.1807189285755157e-001</threshold>
            <left_val>-5.9027850627899170e-001</left_val>
            <right_val>1.2359049916267395e-001</right_val></_></_>
        <_>
          <!-- tree 9 -->
          <_>
            <!-- root node -->
            <feature>
              <rects>
                <_>
                  9 0 1 10 -1.</_>
                <_>
                  9 5 1 5 2.</_></rects>
              <tilted>0</tilted></feature>
            <threshold>-1.2453299760818481e-001</threshold>
            <left_val>-8.5124170780181885e-001</left_val>
            <right_val>3.5797029733657837e-002</right_val></_></_>
        <_>
          <!-- tree 10 -->
          <_>
            <!-- root node -->
            <feature>
              <rects>
                <_>
                  0 0 2 10 -1.</_>
                <_>
                  0 5 2 5 2.</_></rects>
              <tilted>0</tilted></feature>
            <threshold>1.8230040371417999e-001</threshold>
            <left_val>6.3600607216358185e-002</left_val>
            <right_val>-8.3552718162536621e-001</right_val></_></_>
        <_>
          <!-- tree 11 -->
          <_>
            <!-- root node -->
            <feature>
              <rects>
                <_>
                  0 0 10 3 -1.</_>
                <_>
                  0 0 5 3 2.</_></rects>
              <tilted>0</tilted></feature>
            <threshold>2.8837689757347107e-001</threshold>
            <left_val>4.4436048716306686e-002</left_val>
            <right_val>-9.0016078948974609e-001</right_val></_></_></trees>
      <stage_threshold>-1.3906619548797607e+000</stage_threshold>
      <parent>0</parent>
      <next>-1</next></_>
    <_>
      <!-- stage 2 -->
      <trees>
        <_>
          <!-- tree 0 -->
          <_>
            <!-- root node -->
            <feature>
              <rects>
                <_>
                  1 3 6 5 -1.</_>
                <_>
                  4 3 3 5 2.</_></rects>
              <tilted>0</tilted></feature>
            <threshold>-1.3143600523471832e-001</threshold>
            <left_val>2.9052230715751648e-001</left_val>
            <right_val>-6.9001758098602295e-001</right_val></_></_>
        <_>
          <!-- tree 1 -->
          <_>
            <!-- root node -->
            <feature>
              <rects>
                <_>
                  2 0 8 6 -1.</_>
                <_>
                  2 3 8 3 2.</_></rects>
              <tilted>0</tilted></feature>
            <threshold>-1.0795939713716507e-001</threshold>
            <left_val>2.1121080219745636e-001</left_val>
            <right_val>-6.4898842573165894e-001</right_val></_></_>
        <_>
          <!-- tree 2 -->
          <_>
            <!-- root node -->
            <feature>
              <rects>
                <_>
                  2 6 6 4 -1.</_>
                <_>
                  2 8 6 2 2.</_></rects>
              <tilted>0</tilted></feature>
            <threshold>7.1151636540889740e-002</threshold>
            <left_val>-4.1413500905036926e-001</left_val>
            <right_val>2.3099629580974579e-001</right_val></_></_>
        <_>
          <!-- tree 3 -->
          <_>
            <!-- root node -->
            <feature>
              <rects>
                <_>
                  4 0 6 10 -1.</_>
                <_>
                  4 0 3 10 2.</_></rects>
              <tilted>0</tilted></feature>
            <threshold>-3.6864791065454483e-002</threshold>
            <left_val>2.3362840712070465e-001</left_val>
            <right_val>-4.8250180482864380e-001</right_val></_></_>
        <_>
          <!-- tree 4 -->
          <_>
            <!-- root node -->
            <feature>
              <rects>
                <_>
                  0 4 8 6 -1.</_>
                <_>
                  4 4 4 6 2.</_></rects>
              <tilted>0</tilted></feature>
            <threshold>-2.2221399843692780e-001</threshold>
            <left_val>1.8849189579486847e-001</left_val>
            <right_val>-4.3413710594177246e-001</right_val></_></_>
        <_>
          <!-- tree 5 -->
          <_>
            <!-- root node -->
            <feature>
              <rects>
                <_>
                  7 0 3 10 -1.</_>
                <_>
                  7 5 3 5 2.</_></rects>
              <tilted>0</tilted></feature>
            <threshold>3.0122879147529602e-001</threshold>
            <left_val>4.0619090199470520e-002</left_val>
            <right_val>-9.2153978347778320e-001</right_val></_></_>
        <_>
          <!-- tree 6 -->
          <_>
            <!-- root node -->
            <feature>
              <rects>
                <_>
                  0 0 3 10 -1.</_>
                <_>
                  0 5 3 5 2.</_></rects>
              <tilted>0</tilted></feature>
            <threshold>2.3898430168628693e-001</threshold>
            <left_val>4.4170700013637543e-002</left_val>
            <right_val>-8.1379979848861694e-001</right_val></_></_>
        <_>
          <!-- tree 7 -->
          <_>
            <!-- root node -->
            <feature>
              <rects>
                <_>
                  0 6 10 4 -1.</_>
                <_>
                  0 8 10 2 2.</_></rects>
              <tilted>0</tilted></feature>
            <threshold>-3.0149329453706741e-002</threshold>
            <left_val>-6.8333089351654053e-001</left_val>
            <right_val>7.4345067143440247e-002</right_val></_></_>
        <_>
          <!-- tree 8 -->
          <_>
            <!-- root node -->
            <feature>
              <rects>
                <_>
                  0 0 10 8 -1.</_>
                <_>
                  0 4 10 4 2.</_></rects>
              <tilted>0</tilted></feature>
            <threshold>-6.8368232250213623e-001</threshold>
            <left_val>-5.7926809787750244e-001</left_val>
            <right_val>7.4004963040351868e-002</right_val></_></_>
        <_>
          <!-- tree 9 -->
          <_>
            <!-- root node -->
            <feature>
              <rects>
                <_>
                  0 1 10 9 -1.</_>
                <_>
                  0 1 5 9 2.</_></rects>
              <tilted>0</tilted></feature>
            <threshold>8.3900511264801025e-001</threshold>
            <left_val>4.7004900872707367e-002</left_val>
            <right_val>-7.8214478492736816e-001</right_val></_></_>
        <_>
          <!-- tree 10 -->
          <_>
            <!-- root node -->
            <feature>
              <rects>
                <_>
                  0 0 6 10 -1.</_>
                <_>
                  3 0 3 10 2.</_></rects>
              <tilted>0</tilted></feature>
            <threshold>-2.5587329640984535e-002</threshold>
            <left_val>6.2291249632835388e-002</left_val>
            <right_val>-6.6193097829818726e-001</right_val></_></_>
        <_>
          <!-- tree 11 -->
          <_>
            <!-- root node -->
            <feature>
              <rects>
                <_>
                  2 5 6 3 -1.</_>
                <_>
                  2 5 3 3 2.</_></rects>
              <tilted>0</tilted></feature>
            <threshold>2.0452329516410828e-001</threshold>
            <left_val>-1.2656949460506439e-001</left_val>
            <right_val>4.2338168621063232e-001</right_val></_></_>
        <_>
          <!-- tree 12 -->
          <_>
            <!-- root node -->
            <feature>
              <rects>
                <_>
                  3 1 4 9 -1.</_>
                <_>
                  3 4 4 3 3.</_></rects>
              <tilted>0</tilted></feature>
            <threshold>-3.7072861194610596e-001</threshold>
            <left_val>3.3670708537101746e-001</left_val>
            <right_val>-1.8730059266090393e-001</right_val></_></_>
        <_>
          <!-- tree 13 -->
          <_>
            <!-- root node -->
            <feature>
              <rects>
                <_>
                  0 0 10 4 -1.</_>
                <_>
                  5 0 5 2 2.</_>
                <_>
                  0 2 5 2 2.</_></rects>
              <tilted>0</tilted></feature>
            <threshold>1.3491569459438324e-001</threshold>
            <left_val>7.4225008487701416e-002</left_val>
            <right_val>-4.7469469904899597e-001</right_val></_></_>
        <_>
          <!-- tree 14 -->
          <_>
            <!-- root node -->
            <feature>
              <rects>
                <_>
                  0 0 8 3 -1.</_>
                <_>
                  4 0 4 3 2.</_></rects>
              <tilted>0</tilted></feature>
            <threshold>-2.4114310741424561e-001</threshold>
            <left_val>-6.7142647504806519e-001</left_val>
            <right_val>5.0955459475517273e-002</right_val></_></_>
        <_>
          <!-- tree 15 -->
          <_>
            <!-- root node -->
            <feature>
              <rects>
                <_>
                  0 4 10 6 -1.</_>
                <_>
                  0 7 10 3 2.</_></rects>
              <tilted>0</tilted></feature>
            <threshold>6.2328630685806274e-001</threshold>
            <left_val>4.6629998832941055e-002</left_val>
            <right_val>-6.8269139528274536e-001</right_val></_></_>
        <_>
          <!-- tree 16 -->
          <_>
            <!-- root node -->
            <feature>
              <rects>
                <_>
                  0 8 2 2 -1.</_>
                <_>
                  0 9 2 1 2.</_></rects>
              <tilted>0</tilted></feature>
            <threshold>-1.5634000301361084e-002</threshold>
            <left_val>-5.9082239866256714e-001</left_val>
            <right_val>5.1322329789400101e-002</right_val></_></_>
        <_>
          <!-- tree 17 -->
          <_>
            <!-- root node -->
            <feature>
              <rects>
                <_>
                  0 9 10 1 -1.</_>
                <_>
                  0 9 5 1 2.</_></rects>
              <tilted>0</tilted></feature>
            <threshold>1.3292069733142853e-001</threshold>
            <left_val>3.7322111427783966e-002</left_val>
            <right_val>-7.8772848844528198e-001</right_val></_></_>
        <_>
          <!-- tree 18 -->
          <_>
            <!-- root node -->
            <feature>
              <rects>
                <_>
                  0 0 10 2 -1.</_>
                <_>
                  0 1 10 1 2.</_></rects>
              <tilted>0</tilted></feature>
            <threshold>6.7219093441963196e-002</threshold>
            <left_val>3.6899190396070480e-002</left_val>
            <right_val>-7.3042201995849609e-001</right_val></_></_>
        <_>
          <!-- tree 19 -->
          <_>
            <!-- root node -->
            <feature>
              <rects>
                <_>
                  8 0 2 10 -1.</_>
                <_>
                  8 0 1 10 2.</_></rects>
              <tilted>0</tilted></feature>
            <threshold>8.4708631038665771e-002</threshold>
            <left_val>1.6403790563344955e-002</left_val>
            <right_val>-8.4726077318191528e-001</right_val></_></_>
        <_>
          <!-- tree 20 -->
          <_>
            <!-- root node -->
            <feature>
              <rects>
                <_>
                  0 2 1 8 -1.</_>
                <_>
                  0 6 1 4 2.</_></rects>
              <tilted>0</tilted></feature>
            <threshold>-6.3288003206253052e-002</threshold>
            <left_val>-6.4854639768600464e-001</left_val>
            <right_val>4.2486079037189484e-002</right_val></_></_>
        <_>
          <!-- tree 21 -->
          <_>
            <!-- root node -->
            <feature>
              <rects>
                <_>
                  0 0 10 5 -1.</_>
                <_>
                  0 0 5 5 2.</_></rects>
              <tilted>0</tilted></feature>
            <threshold>-3.5763469338417053e-001</threshold>
            <left_val>-8.5907167196273804e-001</left_val>
            <right_val>3.1497478485107422e-002</right_val></_></_></trees>
      <stage_threshold>-1.4723639488220215e+000</stage_threshold>
      <parent>1</parent>
      <next>-1</next></_>
    <_>
      <!-- stage 3 -->
      <trees>
        <_>
          <!-- tree 0 -->
          <_>
            <!-- root node -->
            <feature>
              <rects>
                <_>
                  1 4 6 4 -1.</_>
                <_>
                  4 4 3 4 2.</_></rects>
              <tilted>0</tilted></feature>
            <threshold>-2.3348580300807953e-001</threshold>
            <left_val>4.0167298913002014e-001</left_val>
            <right_val>-3.3262979984283447e-001</right_val></_></_>
        <_>
          <!-- tree 1 -->
          <_>
            <!-- root node -->
            <feature>
              <rects>
                <_>
                  2 1 8 9 -1.</_>
                <_>
                  2 4 8 3 3.</_></rects>
              <tilted>0</tilted></feature>
            <threshold>-2.8223091363906860e-001</threshold>
            <left_val>2.2720369696617126e-001</left_val>
            <right_val>-4.9858221411705017e-001</right_val></_></_>
        <_>
          <!-- tree 2 -->
          <_>
            <!-- root node -->
            <feature>
              <rects>
                <_>
                  0 2 6 8 -1.</_>
                <_>
                  3 2 3 8 2.</_></rects>
              <tilted>0</tilted></feature>
            <threshold>-1.2554310262203217e-001</threshold>
            <left_val>1.0128340125083923e-001</left_val>
            <right_val>-5.2693939208984375e-001</right_val></_></_>
        <_>
          <!-- tree 3 -->
          <_>
            <!-- root node -->
            <feature>
              <rects>
                <_>
                  2 0 6 8 -1.</_>
                <_>
                  2 4 6 4 2.</_></rects>
              <tilted>0</tilted></feature>
            <threshold>-1.8221299350261688e-001</threshold>
            <left_val>1.6171079874038696e-001</left_val>
            <right_val>-4.0923398733139038e-001</right_val></_></_>
        <_>
          <!-- tree 4 -->
          <_>
            <!-- root node -->
            <feature>
              <rects>
                <_>
                  0 0 10 9 -1.</_>
                <_>
                  5 0 5 9 2.</_></rects>
              <tilted>0</tilted></feature>
            <threshold>-7.5001400709152222e-001</threshold>
            <left_val>-6.7434859275817871e-001</left_val>
            <right_val>1.1568520218133926e-001</right_val></_></_>
        <_>
          <!-- tree 5 -->
          <_>
            <!-- root node -->
            <feature>
              <rects>
                <_>
                  3 5 4 4 -1.</_>
                <_>
                  3 5 2 4 2.</_></rects>
              <tilted>0</tilted></feature>
            <threshold>1.6438889503479004e-001</threshold>
            <left_val>-1.2902949750423431e-001</left_val>
            <right_val>5.3287667036056519e-001</right_val></_></_>
        <_>
          <!-- tree 6 -->
          <_>
            <!-- root node -->
            <feature>
              <rects>
                <_>
                  0 3 9 4 -1.</_>
                <_>
                  3 3 3 4 3.</_></rects>
              <tilted>0</tilted></feature>
            <threshold>-3.3338838815689087e-001</threshold>
            <left_val>3.4002870321273804e-001</left_val>
            <right_val>-1.4959819614887238e-001</right_val></_></_>
        <_>
          <!-- tree 7 -->
          <_>
            <!-- root node -->
            <feature>
              <rects>
                <_>
                  5 0 5 10 -1.</_>
                <_>
                  5 5 5 5 2.</_></rects>
              <tilted>0</tilted></feature>
            <threshold>-6.2416779994964600e-001</threshold>
            <left_val>-7.8714239597320557e-001</left_val>
            <right_val>1.5255199745297432e-002</right_val></_></_>
        <_>
          <!-- tree 8 -->
          <_>
            <!-- root node -->
            <feature>
              <rects>
                <_>
                  0 0 5 10 -1.</_>
                <_>
                  0 5 5 5 2.</_></rects>
              <tilted>0</tilted></feature>
            <threshold>-2.4357789754867554e-001</threshold>
            <left_val>-4.3369901180267334e-001</left_val>
            <right_val>8.9915283024311066e-002</right_val></_></_>
        <_>
          <!-- tree 9 -->
          <_>
            <!-- root node -->
            <feature>
              <rects>
                <_>
                  2 0 8 6 -1.</_>
                <_>
                  2 3 8 3 2.</_></rects>
              <tilted>0</tilted></feature>
            <threshold>-5.6297212839126587e-001</threshold>
            <left_val>-7.6658880710601807e-001</left_val>
            <right_val>4.6286411583423615e-002</right_val></_></_>
        <_>
          <!-- tree 10 -->
          <_>
            <!-- root node -->
            <feature>
              <rects>
                <_>
                  0 0 8 6 -1.</_>
                <_>
                  0 3 8 3 2.</_></rects>
              <tilted>0</tilted></feature>
            <threshold>-2.9639739543199539e-002</threshold>
            <left_val>7.3689579963684082e-002</left_val>
            <right_val>-5.4960489273071289e-001</right_val></_></_>
        <_>
          <!-- tree 11 -->
          <_>
            <!-- root node -->
            <feature>
              <rects>
                <_>
                  4 4 2 3 -1.</_>
                <_>
                  4 4 1 3 2.</_></rects>
              <tilted>0</tilted></feature>
            <threshold>-1.3073650188744068e-002</threshold>
            <left_val>-5.5018478631973267e-001</left_val>
            <right_val>7.5024172663688660e-002</right_val></_></_>
        <_>
          <!-- tree 12 -->
          <_>
            <!-- root node -->
            <feature>
              <rects>
                <_>
                  0 0 2 10 -1.</_>
                <_>
                  1 0 1 10 2.</_></rects>
              <tilted>0</tilted></feature>
            <threshold>8.1961393356323242e-002</threshold>
            <left_val>3.2143130898475647e-002</left_val>
            <right_val>-9.1260588169097900e-001</right_val></_></_>
        <_>
          <!-- tree 13 -->
          <_>
            <!-- root node -->
            <feature>
              <rects>
                <_>
                  0 2 10 8 -1.</_>
                <_>
                  0 2 5 8 2.</_></rects>
              <tilted>0</tilted></feature>
            <threshold>8.6220687627792358e-001</threshold>
            <left_val>2.5546289980411530e-002</left_val>
            <right_val>-9.6648359298706055e-001</right_val></_></_>
        <_>
          <!-- tree 14 -->
          <_>
            <!-- root node -->
            <feature>
              <rects>
                <_>
                  0 0 2 10 -1.</_>
                <_>
                  0 5 2 5 2.</_></rects>
              <tilted>0</tilted></feature>
            <threshold>1.9075369834899902e-001</threshold>
            <left_val>2.3748429492115974e-002</left_val>
            <right_val>-8.4785372018814087e-001</right_val></_></_>
        <_>
          <!-- tree 15 -->
          <_>
            <!-- root node -->
            <feature>
              <rects>
                <_>
                  0 9 10 1 -1.</_>
                <_>
                  0 9 5 1 2.</_></rects>
              <tilted>0</tilted></feature>
            <threshold>-8.6412243545055389e-002</threshold>
            <left_val>-7.9550367593765259e-001</left_val>
            <right_val>3.0118849128484726e-002</right_val></_></_>
        <_>
          <!-- tree 16 -->
          <_>
            <!-- root node -->
            <feature>
              <rects>
                <_>
                  0 6 9 4 -1.</_>
                <_>
                  0 8 9 2 2.</_></rects>
              <tilted>0</tilted></feature>
            <threshold>-1.6127910465002060e-002</threshold>
            <left_val>-5.5329662561416626e-001</left_val>
            <right_val>5.1729861646890640e-002</right_val></_></_>
        <_>
          <!-- tree 17 -->
          <_>
            <!-- root node -->
            <feature>
              <rects>
                <_>
                  2 3 8 5 -1.</_>
                <_>
                  2 3 4 5 2.</_></rects>
              <tilted>0</tilted></feature>
            <threshold>-6.3703350722789764e-002</threshold>
            <left_val>5.9027221053838730e-002</left_val>
            <right_val>-5.3147871047258377e-002</right_val></_></_>
        <_>
          <!-- tree 18 -->
          <_>
            <!-- root node -->
            <feature>
              <rects>
                <_>
                  0 3 8 5 -1.</_>
                <_>
                  4 3 4 5 2.</_></rects>
              <tilted>0</tilted></feature>
            <threshold>-1.3048620522022247e-001</threshold>
            <left_val>7.6283328235149384e-002</left_val>
            <right_val>-4.6600049734115601e-001</right_val></_></_>
        <_>
          <!-- tree 19 -->
          <_>
            <!-- root node -->
            <feature>
              <rects>
                <_>
                  4 0 6 10 -1.</_>
                <_>
                  4 0 3 10 2.</_></rects>
              <tilted>0</tilted></feature>
            <threshold>-7.6842468976974487e-001</threshold>
            <left_val>-9.3504869937896729e-001</left_val>
            <right_val>1.3144319877028465e-002</right_val></_></_>
        <_>
          <!-- tree 20 -->
          <_>
            <!-- root node -->
            <feature>
              <rects>
                <_>
                  0 0 6 10 -1.</_>
                <_>
                  3 0 3 10 2.</_></rects>
              <tilted>0</tilted></feature>
            <threshold>-6.3709092140197754e-001</threshold>
            <left_val>-5.9910041093826294e-001</left_val>
            <right_val>4.4107981026172638e-002</right_val></_></_>
        <_>
          <!-- tree 21 -->
          <_>
            <!-- root node -->
            <feature>
              <rects>
                <_>
                  0 0 10 2 -1.</_>
                <_>
                  0 1 10 1 2.</_></rects>
              <tilted>0</tilted></feature>
            <threshold>5.7290051132440567e-002</threshold>
            <left_val>3.7524260580539703e-002</left_val>
            <right_val>-6.1265957355499268e-001</right_val></_></_>
        <_>
          <!-- tree 22 -->
          <_>
            <!-- root node -->
            <feature>
              <rects>
                <_>
                  0 0 10 2 -1.</_>
                <_>
                  0 1 10 1 2.</_></rects>
              <tilted>0</tilted></feature>
            <threshold>-1.0355989634990692e-001</threshold>
            <left_val>-7.4979227781295776e-001</left_val>
            <right_val>2.7975639328360558e-002</right_val></_></_>
        <_>
          <!-- tree 23 -->
          <_>
            <!-- root node -->
            <feature>
              <rects>
                <_>
                  0 8 10 2 -1.</_>
                <_>
                  0 9 10 1 2.</_></rects>
              <tilted>0</tilted></feature>
            <threshold>1.5513019263744354e-001</threshold>
            <left_val>2.2791400551795959e-002</left_val>
            <right_val>-8.0556851625442505e-001</right_val></_></_>
        <_>
          <!-- tree 24 -->
          <_>
            <!-- root node -->
            <feature>
              <rects>
                <_>
                  0 8 6 2 -1.</_>
                <_>
                  0 9 6 1 2.</_></rects>
              <tilted>0</tilted></feature>
            <threshold>-2.8294019401073456e-002</threshold>
            <left_val>-4.9928700923919678e-001</left_val>
            <right_val>4.2723491787910461e-002</right_val></_></_>
        <_>
          <!-- tree 25 -->
          <_>
            <!-- root node -->
            <feature>
              <rects>
                <_>
                  6 0 4 10 -1.</_>
                <_>
                  6 0 2 10 2.</_></rects>
              <tilted>0</tilted></feature>
            <threshold>-1.7685869708657265e-002</threshold>
            <left_val>1.3862140476703644e-001</left_val>
            <right_val>-5.1563149690628052e-001</right_val></_></_>
        <_>
          <!-- tree 26 -->
          <_>
            <!-- root node -->
            <feature>
              <rects>
                <_>
                  0 3 9 4 -1.</_>
                <_>
                  3 3 3 4 3.</_></rects>
              <tilted>0</tilted></feature>
            <threshold>-5.2453488111495972e-001</threshold>
            <left_val>4.3175530433654785e-001</left_val>
            <right_val>-6.1863269656896591e-002</right_val></_></_>
        <_>
          <!-- tree 27 -->
          <_>
            <!-- root node -->
            <feature>
              <rects>
                <_>
                  2 9 8 1 -1.</_>
                <_>
                  2 9 4 1 2.</_></rects>
              <tilted>0</tilted></feature>
            <threshold>-1.3811020553112030e-001</threshold>
            <left_val>-1.</left_val>
            <right_val>1.0996090248227119e-002</right_val></_></_>
        <_>
          <!-- tree 28 -->
          <_>
            <!-- root node -->
            <feature>
              <rects>
                <_>
                  0 9 8 1 -1.</_>
                <_>
                  4 9 4 1 2.</_></rects>
              <tilted>0</tilted></feature>
            <threshold>-1.2544180452823639e-001</threshold>
            <left_val>-8.6084419488906860e-001</left_val>
            <right_val>2.1786089986562729e-002</right_val></_></_>
        <_>
          <!-- tree 29 -->
          <_>
            <!-- root node -->
            <feature>
              <rects>
                <_>
                  0 0 10 2 -1.</_>
                <_>
                  0 0 5 2 2.</_></rects>
              <tilted>0</tilted></feature>
            <threshold>2.1542489528656006e-001</threshold>
            <left_val>1.6127280890941620e-002</left_val>
            <right_val>-8.5444927215576172e-001</right_val></_></_>
        <_>
          <!-- tree 30 -->
          <_>
            <!-- root node -->
            <feature>
              <rects>
                <_>
                  0 0 10 6 -1.</_>
                <_>
                  0 0 5 3 2.</_>
                <_>
                  5 3 5 3 2.</_></rects>
              <tilted>0</tilted></feature>
            <threshold>-3.7571749091148376e-001</threshold>
            <left_val>-6.3778138160705566e-001</left_val>
            <right_val>2.4055659770965576e-002</right_val></_></_></trees>
      <stage_threshold>-1.2767829895019531e+000</stage_threshold>
      <parent>2</parent>
      <next>-1</next></_>
    <_>
      <!-- stage 4 -->
      <trees>
        <_>
          <!-- tree 0 -->
          <_>
            <!-- root node -->
            <feature>
              <rects>
                <_>
                  2 6 6 4 -1.</_>
                <_>
                  2 8 6 2 2.</_></rects>
              <tilted>0</tilted></feature>
            <threshold>7.5483828783035278e-001</threshold>
            <left_val>1.2191010318929330e-004</left_val>
            <right_val>-7.3150897216796875e+002</right_val></_></_>
        <_>
          <!-- tree 1 -->
          <_>
            <!-- root node -->
            <feature>
              <rects>
                <_>
                  3 4 6 4 -1.</_>
                <_>
                  3 4 3 4 2.</_></rects>
              <tilted>0</tilted></feature>
            <threshold>-6.3571900129318237e-002</threshold>
            <left_val>5.7008400559425354e-002</left_val>
            <right_val>-3.4596908837556839e-002</right_val></_></_>
        <_>
          <!-- tree 2 -->
          <_>
            <!-- root node -->
            <feature>
              <rects>
                <_>
                  0 4 8 4 -1.</_>
                <_>
                  4 4 4 4 2.</_></rects>
              <tilted>0</tilted></feature>
            <threshold>-2.9534611105918884e-001</threshold>
            <left_val>2.8456661105155945e-001</left_val>
            <right_val>-3.4101408720016479e-001</right_val></_></_>
        <_>
          <!-- tree 3 -->
          <_>
            <!-- root node -->
            <feature>
              <rects>
                <_>
                  2 1 8 9 -1.</_>
                <_>
                  2 4 8 3 3.</_></rects>
              <tilted>0</tilted></feature>
            <threshold>-1.6812160611152649e-001</threshold>
            <left_val>9.7994118928909302e-002</left_val>
            <right_val>-5.3011602163314819e-001</right_val></_></_>
        <_>
          <!-- tree 4 -->
          <_>
            <!-- root node -->
            <feature>
              <rects>
                <_>
                  0 5 8 1 -1.</_>
                <_>
                  4 5 4 1 2.</_></rects>
              <tilted>0</tilted></feature>
            <threshold>1.5555709600448608e-001</threshold>
            <left_val>2.0285319536924362e-002</left_val>
            <right_val>-1.4327189941406250e+003</right_val></_></_>
        <_>
          <!-- tree 5 -->
          <_>
            <!-- root node -->
            <feature>
              <rects>
                <_>
                  2 3 6 5 -1.</_>
                <_>
                  4 3 2 5 3.</_></rects>
              <tilted>0</tilted></feature>
            <threshold>-2.0119139552116394e-001</threshold>
            <left_val>2.5276750326156616e-001</left_val>
            <right_val>-1.5306890010833740e-001</right_val></_></_>
        <_>
          <!-- tree 6 -->
          <_>
            <!-- root node -->
            <feature>
              <rects>
                <_>
                  0 0 8 8 -1.</_>
                <_>
                  0 4 8 4 2.</_></rects>
              <tilted>0</tilted></feature>
            <threshold>-1.0650710016489029e-001</threshold>
            <left_val>1.0099279880523682e-001</left_val>
            <right_val>-4.2162349820137024e-001</right_val></_></_>
        <_>
          <!-- tree 7 -->
          <_>
            <!-- root node -->
            <feature>
              <rects>
                <_>
                  0 0 10 8 -1.</_>
                <_>
                  0 4 10 4 2.</_></rects>
              <tilted>0</tilted></feature>
            <threshold>-6.1408942937850952e-001</threshold>
            <left_val>-3.8300278782844543e-001</left_val>
            <right_val>1.0126300156116486e-001</right_val></_></_>
        <_>
          <!-- tree 8 -->
          <_>
            <!-- root node -->
            <feature>
              <rects>
                <_>
                  0 1 10 4 -1.</_>
                <_>
                  5 1 5 4 2.</_></rects>
              <tilted>0</tilted></feature>
            <threshold>-3.5160240530967712e-001</threshold>
            <left_val>-5.8187431097030640e-001</left_val>
            <right_val>3.7247028201818466e-002</right_val></_></_>
        <_>
          <!-- tree 9 -->
          <_>
            <!-- root node -->
            <feature>
              <rects>
                <_>
                  4 5 2 1 -1.</_>
                <_>
                  4 5 1 1 2.</_></rects>
              <tilted>0</tilted></feature>
            <threshold>-9.1863395646214485e-003</threshold>
            <left_val>-6.6935539245605469e-001</left_val>
            <right_val>3.7863891571760178e-002</right_val></_></_>
        <_>
          <!-- tree 10 -->
          <_>
            <!-- root node -->
            <feature>
              <rects>
                <_>
                  0 0 6 10 -1.</_>
                <_>
                  3 0 3 10 2.</_></rects>
              <tilted>0</tilted></feature>
            <threshold>-6.8780593574047089e-002</threshold>
            <left_val>5.7066868990659714e-002</left_val>
            <right_val>-5.3793311119079590e-001</right_val></_></_>
        <_>
          <!-- tree 11 -->
          <_>
            <!-- root node -->
            <feature>
              <rects>
                <_>
                  3 1 4 9 -1.</_>
                <_>
                  3 4 4 3 3.</_></rects>
              <tilted>0</tilted></feature>
            <threshold>-3.8817670941352844e-001</threshold>
            <left_val>2.1402640640735626e-001</left_val>
            <right_val>-1.3616970181465149e-001</right_val></_></_>
        <_>
          <!-- tree 12 -->
          <_>
            <!-- root node -->
            <feature>
              <rects>
                <_>
                  3 5 4 3 -1.</_>
                <_>
                  5 5 2 3 2.</_></rects>
              <tilted>0</tilted></feature>
            <threshold>-1.1067949980497360e-001</threshold>
            <left_val>3.1610780954360962e-001</left_val>
            <right_val>-1.2584939599037170e-001</right_val></_></_>
        <_>
          <!-- tree 13 -->
          <_>
            <!-- root node -->
            <feature>
              <rects>
                <_>
                  0 3 10 7 -1.</_>
                <_>
                  0 3 5 7 2.</_></rects>
              <tilted>0</tilted></feature>
            <threshold>7.2933918237686157e-001</threshold>
            <left_val>4.8681549727916718e-002</left_val>
            <right_val>-6.7967247962951660e-001</right_val></_></_>
        <_>
          <!-- tree 14 -->
          <_>
            <!-- root node -->
            <feature>
              <rects>
                <_>
                  0 0 3 10 -1.</_>
                <_>
                  0 5 3 5 2.</_></rects>
              <tilted>0</tilted></feature>
            <threshold>2.8444039821624756e-001</threshold>
            <left_val>2.0346369594335556e-002</left_val>
            <right_val>-9.1734868288040161e-001</right_val></_></_>
        <_>
          <!-- tree 15 -->
          <_>
            <!-- root node -->
            <feature>
              <rects>
                <_>
                  0 0 10 2 -1.</_>
                <_>
                  0 1 10 1 2.</_></rects>
              <tilted>0</tilted></feature>
            <threshold>6.5793417394161224e-002</threshold>
            <left_val>2.3461269214749336e-002</left_val>
            <right_val>-7.2398698329925537e-001</right_val></_></_>
        <_>
          <!-- tree 16 -->
          <_>
            <!-- root node -->
            <feature>
              <rects>
                <_>
                  0 0 6 2 -1.</_>
                <_>
                  3 0 3 2 2.</_></rects>
              <tilted>0</tilted></feature>
            <threshold>-1.5442089736461639e-001</threshold>
            <left_val>-8.4224122762680054e-001</left_val>
            <right_val>1.2806880287826061e-002</right_val></_></_>
        <_>
          <!-- tree 17 -->
          <_>
            <!-- root node -->
            <feature>
              <rects>
                <_>
                  8 8 2 2 -1.</_>
                <_>
                  8 9 2 1 2.</_></rects>
              <tilted>0</tilted></feature>
            <threshold>-4.7030579298734665e-002</threshold>
            <left_val>-7.6222550868988037e-001</left_val>
            <right_val>1.1497900122776628e-003</right_val></_></_>
        <_>
          <!-- tree 18 -->
          <_>
            <!-- root node -->
            <feature>
              <rects>
                <_>
                  0 8 2 2 -1.</_>
                <_>
                  0 9 2 1 2.</_></rects>
              <tilted>0</tilted></feature>
            <threshold>-5.9799291193485260e-003</threshold>
            <left_val>-2.8745269775390625e-001</left_val>
            <right_val>7.9678319394588470e-002</right_val></_></_>
        <_>
          <!-- tree 19 -->
          <_>
            <!-- root node -->
            <feature>
              <rects>
                <_>
                  0 0 10 6 -1.</_>
                <_>
                  0 3 10 3 2.</_></rects>
              <tilted>0</tilted></feature>
            <threshold>-4.7826829552650452e-001</threshold>
            <left_val>-3.6784890294075012e-001</left_val>
            <right_val>5.5003829300403595e-002</right_val></_></_>
        <_>
          <!-- tree 20 -->
          <_>
            <!-- root node -->
            <feature>
              <rects>
                <_>
                  3 0 4 9 -1.</_>
                <_>
                  3 3 4 3 3.</_></rects>
              <tilted>0</tilted></feature>
            <threshold>-3.4948098659515381e-001</threshold>
            <left_val>2.4045360088348389e-001</left_val>
            <right_val>-1.0588049888610840e-001</right_val></_></_>
        <_>
          <!-- tree 21 -->
          <_>
            <!-- root node -->
            <feature>
              <rects>
                <_>
                  1 2 8 6 -1.</_>
                <_>
                  1 5 8 3 2.</_></rects>
              <tilted>0</tilted></feature>
            <threshold>-1.8643090128898621e-001</threshold>
            <left_val>1.7737740278244019e-001</left_val>
            <right_val>-1.3214999437332153e-001</right_val></_></_>
        <_>
          <!-- tree 22 -->
          <_>
            <!-- root node -->
            <feature>
              <rects>
                <_>
                  1 0 8 10 -1.</_>
                <_>
                  1 5 8 5 2.</_></rects>
              <tilted>0</tilted></feature>
            <threshold>-7.5438320636749268e-001</threshold>
            <left_val>-7.4155902862548828e-001</left_val>
            <right_val>2.3481639102101326e-002</right_val></_></_>
        <_>
          <!-- tree 23 -->
          <_>
            <!-- root node -->
            <feature>
              <rects>
                <_>
                  0 4 10 6 -1.</_>
                <_>
                  0 7 10 3 2.</_></rects>
              <tilted>0</tilted></feature>
            <threshold>7.0885562896728516e-001</threshold>
            <left_val>2.0538639277219772e-002</left_val>
            <right_val>-7.9920327663421631e-001</right_val></_></_>
        <_>
          <!-- tree 24 -->
          <_>
            <!-- root node -->
            <feature>
              <rects>
                <_>
                  0 0 4 10 -1.</_>
                <_>
                  2 0 2 10 2.</_></rects>
              <tilted>0</tilted></feature>
            <threshold>-5.5293690413236618e-002</threshold>
            <left_val>1.0478229820728302e-001</left_val>
            <right_val>-1.8355810642242432e-001</right_val></_></_>
        <_>
          <!-- tree 25 -->
          <_>
            <!-- root node -->
            <feature>
              <rects>
                <_>
                  2 2 8 8 -1.</_>
                <_>
                  2 2 4 8 2.</_></rects>
              <tilted>0</tilted></feature>
            <threshold>7.1107900142669678e-001</threshold>
            <left_val>5.8053880929946899e-003</left_val>
            <right_val>-9.9999088048934937e-001</right_val></_></_>
        <_>
          <!-- tree 26 -->
          <_>
            <!-- root node -->
            <feature>
              <rects>
                <_>
                  0 2 8 8 -1.</_>
                <_>
                  4 2 4 8 2.</_></rects>
              <tilted>0</tilted></feature>
            <threshold>-6.0383949428796768e-002</threshold>
            <left_val>3.5589370876550674e-002</left_val>
            <right_val>-5.4752451181411743e-001</right_val></_></_>
        <_>
          <!-- tree 27 -->
          <_>
            <!-- root node -->
            <feature>
              <rects>
                <_>
                  7 0 2 4 -1.</_>
                <_>
                  7 2 2 2 2.</_></rects>
              <tilted>0</tilted></feature>
            <threshold>-7.9329386353492737e-002</threshold>
            <left_val>-4.2020958662033081e-001</left_val>
            <right_val>3.3377259969711304e-002</right_val></_></_>
        <_>
          <!-- tree 28 -->
          <_>
            <!-- root node -->
            <feature>
              <rects>
                <_>
                  1 0 2 4 -1.</_>
                <_>
                  1 2 2 2 2.</_></rects>
              <tilted>0</tilted></feature>
            <threshold>7.3008211329579353e-003</threshold>
            <left_val>9.7064487636089325e-002</left_val>
            <right_val>-2.3173679411411285e-001</right_val></_></_>
        <_>
          <!-- tree 29 -->
          <_>
            <!-- root node -->
            <feature>
              <rects>
                <_>
                  0 6 10 4 -1.</_>
                <_>
                  0 8 10 2 2.</_></rects>
              <tilted>0</tilted></feature>
            <threshold>-3.7829939275979996e-002</threshold>
            <left_val>-5.6774771213531494e-001</left_val>
            <right_val>3.4808870404958725e-002</right_val></_></_>
        <_>
          <!-- tree 30 -->
          <_>
            <!-- root node -->
            <feature>
              <rects>
                <_>
                  0 4 6 6 -1.</_>
                <_>
                  3 4 3 6 2.</_></rects>
              <tilted>0</tilted></feature>
            <threshold>-5.4185718297958374e-001</threshold>
            <left_val>-7.8900527954101563e-001</left_val>
            <right_val>1.7902189865708351e-002</right_val></_></_>
        <_>
          <!-- tree 31 -->
          <_>
            <!-- root node -->
            <feature>
              <rects>
                <_>
                  3 4 4 3 -1.</_>
                <_>
                  3 5 4 1 3.</_></rects>
              <tilted>0</tilted></feature>
            <threshold>3.5569820553064346e-002</threshold>
            <left_val>3.0050210654735565e-002</left_val>
            <right_val>-4.9680811166763306e-001</right_val></_></_>
        <_>
          <!-- tree 32 -->
          <_>
            <!-- root node -->
            <feature>
              <rects>
                <_>
                  4 4 2 2 -1.</_>
                <_>
                  4 4 1 1 2.</_>
                <_>
                  5 5 1 1 2.</_></rects>
              <tilted>0</tilted></feature>
            <threshold>2.6582760619930923e-004</threshold>
            <left_val>-1.1495040357112885e-001</left_val>
            <right_val>1.6121269762516022e-001</right_val></_></_>
        <_>
          <!-- tree 33 -->
          <_>
            <!-- root node -->
            <feature>
              <rects>
                <_>
                  5 4 1 2 -1.</_>
                <_>
                  5 5 1 1 2.</_></rects>
              <tilted>0</tilted></feature>
            <threshold>-4.0068849921226501e-003</threshold>
            <left_val>-1.3767530024051666e-001</left_val>
            <right_val>9.9668927490711212e-002</right_val></_></_>
        <_>
          <!-- tree 34 -->
          <_>
            <!-- root node -->
            <feature>
              <rects>
                <_>
                  4 4 2 2 -1.</_>
                <_>
                  4 4 1 1 2.</_>
                <_>
                  5 5 1 1 2.</_></rects>
              <tilted>0</tilted></feature>
            <threshold>-2.7030819910578430e-004</threshold>
            <left_val>1.3627229630947113e-001</left_val>
            <right_val>-1.4890240132808685e-001</right_val></_></_>
        <_>
          <!-- tree 35 -->
          <_>
            <!-- root node -->
            <feature>
              <rects>
                <_>
                  7 0 3 1 -1.</_>
                <_>
                  8 0 1 1 3.</_></rects>
              <tilted>0</tilted></feature>
            <threshold>3.8367040455341339e-002</threshold>
            <left_val>8.4470026195049286e-003</left_val>
            <right_val>-9.4510418176651001e-001</right_val></_></_>
        <_>
          <!-- tree 36 -->
          <_>
            <!-- root node -->
            <feature>
              <rects>
                <_>
                  0 0 3 1 -1.</_>
                <_>
                  1 0 1 1 3.</_></rects>
              <tilted>0</tilted></feature>
            <threshold>2.6170929893851280e-002</threshold>
            <left_val>1.9201289862394333e-002</left_val>
            <right_val>-7.9117017984390259e-001</right_val></_></_>
        <_>
          <!-- tree 37 -->
          <_>
            <!-- root node -->
            <feature>
              <rects>
                <_>
                  0 9 10 1 -1.</_>
                <_>
                  0 9 5 1 2.</_></rects>
              <tilted>0</tilted></feature>
            <threshold>1.2993249297142029e-001</threshold>
            <left_val>1.9872790202498436e-002</left_val>
            <right_val>-6.9699478149414063e-001</right_val></_></_>
        <_>
          <!-- tree 38 -->
          <_>
            <!-- root node -->
            <feature>
              <rects>
                <_>
                  0 0 10 1 -1.</_>
                <_>
                  5 0 5 1 2.</_></rects>
              <tilted>0</tilted></feature>
            <threshold>-8.8084116578102112e-002</threshold>
            <left_val>-4.6892181038856506e-001</left_val>
            <right_val>3.1447518616914749e-002</right_val></_></_>
        <_>
          <!-- tree 39 -->
          <_>
            <!-- root node -->
            <feature>
              <rects>
                <_>
                  3 0 4 10 -1.</_>
                <_>
                  3 0 2 10 2.</_></rects>
              <tilted>0</tilted></feature>
            <threshold>1.9299410283565521e-001</threshold>
            <left_val>-8.6626812815666199e-002</left_val>
            <right_val>1.8574239313602448e-001</right_val></_></_>
        <_>
          <!-- tree 40 -->
          <_>
            <!-- root node -->
            <feature>
              <rects>
                <_>
                  0 0 6 10 -1.</_>
                <_>
                  2 0 2 10 3.</_></rects>
              <tilted>0</tilted></feature>
            <threshold>4.8456040024757385e-001</threshold>
            <left_val>2.3380430415272713e-002</left_val>
            <right_val>-7.8080111742019653e-001</right_val></_></_>
        <_>
          <!-- tree 41 -->
          <_>
            <!-- root node -->
            <feature>
              <rects>
                <_>
                  7 3 1 6 -1.</_>
                <_>
                  7 5 1 2 3.</_></rects>
              <tilted>0</tilted></feature>
            <threshold>-3.8343809545040131e-002</threshold>
            <left_val>1.0602109879255295e-001</left_val>
            <right_val>-9.9070608615875244e-002</right_val></_></_>
        <_>
          <!-- tree 42 -->
          <_>
            <!-- root node -->
            <feature>
              <rects>
                <_>
                  0 5 10 2 -1.</_>
                <_>
                  5 5 5 2 2.</_></rects>
              <tilted>0</tilted></feature>
            <threshold>-1.0705749690532684e-001</threshold>
            <left_val>-1.2613709270954132e-001</left_val>
            <right_val>1.4381909370422363e-001</right_val></_></_>
        <_>
          <!-- tree 43 -->
          <_>
            <!-- root node -->
            <feature>
              <rects>
                <_>
                  2 3 8 6 -1.</_>
                <_>
                  2 3 4 6 2.</_></rects>
              <tilted>0</tilted></feature>
            <threshold>5.7113331556320190e-001</threshold>
            <left_val>-3.2725241035223007e-003</left_val>
            <right_val>3.8039839267730713e-001</right_val></_></_>
        <_>
          <!-- tree 44 -->
          <_>
            <!-- root node -->
            <feature>
              <rects>
                <_>
                  0 3 8 6 -1.</_>
                <_>
                  4 3 4 6 2.</_></rects>
              <tilted>0</tilted></feature>
            <threshold>-2.0561540126800537e-001</threshold>
            <left_val>5.9698510915040970e-002</left_val>
            <right_val>-2.8538179397583008e-001</right_val></_></_>
        <_>
          <!-- tree 45 -->
          <_>
            <!-- root node -->
            <feature>
              <rects>
                <_>
                  3 0 4 3 -1.</_>
                <_>
                  3 1 4 1 3.</_></rects>
              <tilted>0</tilted></feature>
            <threshold>2.4742880836129189e-002</threshold>
            <left_val>-8.5034489631652832e-002</left_val>
            <right_val>1.8550249934196472e-001</right_val></_></_>
        <_>
          <!-- tree 46 -->
          <_>
            <!-- root node -->
            <feature>
              <rects>
                <_>
                  4 5 2 2 -1.</_>
                <_>
                  4 6 2 1 2.</_></rects>
              <tilted>0</tilted></feature>
            <threshold>1.3007219880819321e-002</threshold>
            <left_val>7.2577282786369324e-002</left_val>
            <right_val>-2.1686260402202606e-001</right_val></_></_>
        <_>
          <!-- tree 47 -->
          <_>
            <!-- root node -->
            <feature>
              <rects>
                <_>
                  1 4 8 4 -1.</_>
                <_>
                  1 6 8 2 2.</_></rects>
              <tilted>0</tilted></feature>
            <threshold>2.6820188760757446e-001</threshold>
            <left_val>-4.0075019001960754e-002</left_val>
            <right_val>4.6383160352706909e-001</right_val></_></_>
        <_>
          <!-- tree 48 -->
          <_>
            <!-- root node -->
            <feature>
              <rects>
                <_>
                  3 6 3 1 -1.</_>
                <_>
                  4 6 1 1 3.</_></rects>
              <tilted>0</tilted></feature>
            <threshold>-4.3188150972127914e-002</threshold>
            <left_val>-8.3267730474472046e-001</left_val>
            <right_val>2.0763689652085304e-002</right_val></_></_>
        <_>
          <!-- tree 49 -->
          <_>
            <!-- root node -->
            <feature>
              <rects>
                <_>
                  7 9 2 1 -1.</_>
                <_>
                  7 9 1 1 2.</_></rects>
              <tilted>0</tilted></feature>
            <threshold>-2.9634440317749977e-002</threshold>
            <left_val>-8.1022071838378906e-001</left_val>
            <right_val>8.3335516974329948e-003</right_val></_></_>
        <_>
          <!-- tree 50 -->
          <_>
            <!-- root node -->
            <feature>
              <rects>
                <_>
                  1 9 2 1 -1.</_>
                <_>
                  2 9 1 1 2.</_></rects>
              <tilted>0</tilted></feature>
            <threshold>2.7889630291610956e-004</threshold>
            <left_val>-1.0818140208721161e-001</left_val>
            <right_val>1.3389499485492706e-001</right_val></_></_>
        <_>
          <!-- tree 51 -->
          <_>
            <!-- root node -->
            <feature>
              <rects>
                <_>
                  6 0 4 9 -1.</_>
                <_>
                  6 3 4 3 3.</_></rects>
              <tilted>0</tilted></feature>
            <threshold>-4.4520899653434753e-001</threshold>
            <left_val>-4.2861491441726685e-001</left_val>
            <right_val>2.8351789340376854e-002</right_val></_></_>
        <_>
          <!-- tree 52 -->
          <_>
            <!-- root node -->
            <feature>
              <rects>
                <_>
                  0 0 4 9 -1.</_>
                <_>
                  0 3 4 3 3.</_></rects>
              <tilted>0</tilted></feature>
            <threshold>2.5038298964500427e-001</threshold>
            <left_val>1.6372479498386383e-002</left_val>
            <right_val>-7.5621867179870605e-001</right_val></_></_>
        <_>
          <!-- tree 53 -->
          <_>
            <!-- root node -->
            <feature>
              <rects>
                <_>
                  4 8 6 2 -1.</_>
                <_>
                  4 9 6 1 2.</_></rects>
              <tilted>0</tilted></feature>
            <threshold>1.1597780138254166e-001</threshold>
            <left_val>1.4978379942476749e-002</left_val>
            <right_val>-6.3088899850845337e-001</right_val></_></_>
        <_>
          <!-- tree 54 -->
          <_>
            <!-- root node -->
            <feature>
              <rects>
                <_>
                  0 8 6 2 -1.</_>
                <_>
                  0 9 6 1 2.</_></rects>
              <tilted>0</tilted></feature>
            <threshold>-4.6155899763107300e-002</threshold>
            <left_val>-6.6190689802169800e-001</left_val>
            <right_val>1.8750559538602829e-002</right_val></_></_>
        <_>
          <!-- tree 55 -->
          <_>
            <!-- root node -->
            <feature>
              <rects>
                <_>
                  0 0 10 8 -1.</_>
                <_>
                  0 0 5 8 2.</_></rects>
              <tilted>0</tilted></feature>
            <threshold>7.6676088571548462e-001</threshold>
            <left_val>1.6241390258073807e-002</left_val>
            <right_val>-6.9605571031570435e-001</right_val></_></_>
        <_>
          <!-- tree 56 -->
          <_>
            <!-- root node -->
            <feature>
              <rects>
                <_>
                  0 0 10 5 -1.</_>
                <_>
                  5 0 5 5 2.</_></rects>
              <tilted>0</tilted></feature>
            <threshold>3.9449599385261536e-001</threshold>
            <left_val>1.0380350053310394e-002</left_val>
            <right_val>-9.8613297939300537e-001</right_val></_></_>
        <_>
          <!-- tree 57 -->
          <_>
            <!-- root node -->
            <feature>
              <rects>
                <_>
                  3 2 4 2 -1.</_>
                <_>
                  5 2 2 1 2.</_>
                <_>
                  3 3 2 1 2.</_></rects>
              <tilted>0</tilted></feature>
            <threshold>1.6959540545940399e-002</threshold>
            <left_val>-7.5558148324489594e-002</left_val>
            <right_val>1.8038140237331390e-001</right_val></_></_>
        <_>
          <!-- tree 58 -->
          <_>
            <!-- root node -->
            <feature>
              <rects>
                <_>
                  3 7 3 1 -1.</_>
                <_>
                  4 7 1 1 3.</_></rects>
              <tilted>0</tilted></feature>
            <threshold>-3.6532271653413773e-002</threshold>
            <left_val>-6.3986647129058838e-001</left_val>
            <right_val>2.0001260563731194e-002</right_val></_></_>
        <_>
          <!-- tree 59 -->
          <_>
            <!-- root node -->
            <feature>
              <rects>
                <_>
                  5 6 1 3 -1.</_>
                <_>
                  5 7 1 1 3.</_></rects>
              <tilted>0</tilted></feature>
            <threshold>-4.1318111121654510e-002</threshold>
            <left_val>-6.1482107639312744e-001</left_val>
            <right_val>1.2768410146236420e-002</right_val></_></_>
        <_>
          <!-- tree 60 -->
          <_>
            <!-- root node -->
            <feature>
              <rects>
                <_>
                  4 6 1 3 -1.</_>
                <_>
                  4 7 1 1 3.</_></rects>
              <tilted>0</tilted></feature>
            <threshold>-1.3340190052986145e-002</threshold>
            <left_val>2.4924579262733459e-001</left_val>
            <right_val>-7.5761802494525909e-002</right_val></_></_>
        <_>
          <!-- tree 61 -->
          <_>
            <!-- root node -->
            <feature>
              <rects>
                <_>
                  2 7 6 1 -1.</_>
                <_>
                  2 7 3 1 2.</_></rects>
              <tilted>0</tilted></feature>
            <threshold>9.5484882593154907e-002</threshold>
            <left_val>-3.9973609149456024e-002</left_val>
            <right_val>3.7154969573020935e-001</right_val></_></_>
        <_>
          <!-- tree 62 -->
          <_>
            <!-- root node -->
            <feature>
              <rects>
                <_>
                  2 4 6 6 -1.</_>
                <_>
                  5 4 3 6 2.</_></rects>
              <tilted>0</tilted></feature>
            <threshold>1.4733409881591797e-001</threshold>
            <left_val>-3.1096190214157104e-002</left_val>
            <right_val>3.9678579568862915e-001</right_val></_></_>
        <_>
          <!-- tree 63 -->
          <_>
            <!-- root node -->
            <feature>
              <rects>
                <_>
                  5 5 2 1 -1.</_>
                <_>
                  5 5 1 1 2.</_></rects>
              <tilted>0</tilted></feature>
            <threshold>-6.9714100100100040e-003</threshold>
            <left_val>-2.0549570024013519e-001</left_val>
            <right_val>6.9005951285362244e-002</right_val></_></_>
        <_>
          <!-- tree 64 -->
          <_>
            <!-- root node -->
            <feature>
              <rects>
                <_>
                  3 5 2 1 -1.</_>
                <_>
                  4 5 1 1 2.</_></rects>
              <tilted>0</tilted></feature>
            <threshold>-2.1825840696692467e-002</threshold>
            <left_val>2.8697860240936279e-001</left_val>
            <right_val>-6.3162371516227722e-002</right_val></_></_>
        <_>
          <!-- tree 65 -->
          <_>
            <!-- root node -->
            <feature>
              <rects>
                <_>
                  1 3 9 4 -1.</_>
                <_>
                  4 3 3 4 3.</_></rects>
              <tilted>0</tilted></feature>
            <threshold>-2.6052808761596680e-001</threshold>
            <left_val>5.2218388766050339e-002</left_val>
            <right_val>-9.9676817655563354e-002</right_val></_></_>
        <_>
          <!-- tree 66 -->
          <_>
            <!-- root node -->
            <feature>
              <rects>
                <_>
                  3 3 2 2 -1.</_>
                <_>
                  4 3 1 2 2.</_></rects>
              <tilted>0</tilted></feature>
            <threshold>-8.1401914358139038e-003</threshold>
            <left_val>-1.1411680281162262e-001</left_val>
            <right_val>1.2729269266128540e-001</right_val></_></_>
        <_>
          <!-- tree 67 -->
          <_>
            <!-- root node -->
            <feature>
              <rects>
                <_>
                  3 2 6 1 -1.</_>
                <_>
                  5 2 2 1 3.</_></rects>
              <tilted>0</tilted></feature>
            <threshold>-4.4575128704309464e-002</threshold>
            <left_val>1.9550889730453491e-001</left_val>
            <right_val>-5.3778659552335739e-002</right_val></_></_>
        <_>
          <!-- tree 68 -->
          <_>
            <!-- root node -->
            <feature>
              <rects>
                <_>
                  3 0 4 6 -1.</_>
                <_>
                  3 3 4 3 2.</_></rects>
              <tilted>0</tilted></feature>
            <threshold>7.3434510268270969e-003</threshold>
            <left_val>2.4400290101766586e-002</left_val>
            <right_val>-5.4685497283935547e-001</right_val></_></_>
        <_>
          <!-- tree 69 -->
          <_>
            <!-- root node -->
            <feature>
              <rects>
                <_>
                  8 1 2 9 -1.</_>
                <_>
                  8 1 1 9 2.</_></rects>
              <tilted>0</tilted></feature>
            <threshold>-1.3992039859294891e-001</threshold>
            <left_val>-7.2938960790634155e-001</left_val>
            <right_val>1.4297709800302982e-002</right_val></_></_>
        <_>
          <!-- tree 70 -->
          <_>
            <!-- root node -->
            <feature>
              <rects>
                <_>
                  0 1 2 9 -1.</_>
                <_>
                  1 1 1 9 2.</_></rects>
              <tilted>0</tilted></feature>
            <threshold>7.7208496630191803e-002</threshold>
            <left_val>1.3148389756679535e-002</left_val>
            <right_val>-7.8970891237258911e-001</right_val></_></_>
        <_>
          <!-- tree 71 -->
          <_>
            <!-- root node -->
            <feature>
              <rects>
                <_>
                  6 5 3 4 -1.</_>
                <_>
                  7 5 1 4 3.</_></rects>
              <tilted>0</tilted></feature>
            <threshold>-3.5896819084882736e-002</threshold>
            <left_val>2.4878050386905670e-001</left_val>
            <right_val>-9.7786799073219299e-002</right_val></_></_>
        <_>
          <!-- tree 72 -->
          <_>
            <!-- root node -->
            <feature>
              <rects>
                <_>
                  0 3 9 4 -1.</_>
                <_>
                  3 3 3 4 3.</_></rects>
              <tilted>0</tilted></feature>
            <threshold>-4.5715770125389099e-001</threshold>
            <left_val>2.5369089841842651e-001</left_val>
            <right_val>-5.5388830602169037e-002</right_val></_></_>
        <_>
          <!-- tree 73 -->
          <_>
            <!-- root node -->
            <feature>
              <rects>
                <_>
                  9 4 1 6 -1.</_>
                <_>
                  9 7 1 3 2.</_></rects>
              <tilted>0</tilted></feature>
            <threshold>7.8916952013969421e-002</threshold>
            <left_val>2.8285570442676544e-002</left_val>
            <right_val>-6.0147762298583984e-001</right_val></_></_></trees>
      <stage_threshold>-1.3294370174407959e+000</stage_threshold>
      <parent>3</parent>
      <next>-1</next></_>
    <_>
      <!-- stage 5 -->
      <trees>
        <_>
          <!-- tree 0 -->
          <_>
            <!-- root node -->
            <feature>
              <rects>
                <_>
                  1 3 6 5 -1.</_>
                <_>
                  4 3 3 5 2.</_></rects>
              <tilted>0</tilted></feature>
            <threshold>-2.2263799607753754e-001</threshold>
            <left_val>1.8343900144100189e-001</left_val>
            <right_val>-3.2780039310455322e-001</right_val></_></_>
        <_>
          <!-- tree 1 -->
          <_>
            <!-- root node -->
            <feature>
              <rects>
                <_>
                  2 1 6 9 -1.</_>
                <_>
                  2 4 6 3 3.</_></rects>
              <tilted>0</tilted></feature>
            <threshold>-3.6313739418983459e-001</threshold>
            <left_val>1.9226209819316864e-001</left_val>
            <right_val>-3.0140310525894165e-001</right_val></_></_>
        <_>
          <!-- tree 2 -->
          <_>
            <!-- root node -->
            <feature>
              <rects>
                <_>
                  0 6 9 4 -1.</_>
                <_>
                  0 8 9 2 2.</_></rects>
              <tilted>0</tilted></feature>
            <threshold>9.3794417381286621e-001</threshold>
            <left_val>4.8922240734100342e-002</left_val>
            <right_val>-5.1554168701171875e+002</right_val></_></_>
        <_>
          <!-- tree 3 -->
          <_>
            <!-- root node -->
            <feature>
              <rects>
                <_>
                  4 3 2 6 -1.</_>
                <_>
                  4 5 2 2 3.</_></rects>
              <tilted>0</tilted></feature>
            <threshold>-3.1876310240477324e-003</threshold>
            <left_val>-9.6834897994995117e-003</left_val>
            <right_val>-3.2907488942146301e-001</right_val></_></_>
        <_>
          <!-- tree 4 -->
          <_>
            <!-- root node -->
            <feature>
              <rects>
                <_>
                  0 0 10 6 -1.</_>
                <_>
                  0 3 10 3 2.</_></rects>
              <tilted>0</tilted></feature>
            <threshold>-4.9513980746269226e-001</threshold>
            <left_val>-4.2629969120025635e-001</left_val>
            <right_val>1.1015170067548752e-001</right_val></_></_>
        <_>
          <!-- tree 5 -->
          <_>
            <!-- root node -->
            <feature>
              <rects>
                <_>
                  2 0 6 8 -1.</_>
                <_>
                  2 4 6 4 2.</_></rects>
              <tilted>0</tilted></feature>
            <threshold>-2.4798470735549927e-001</threshold>
            <left_val>1.3190239667892456e-001</left_val>
            <right_val>-2.8734520077705383e-001</right_val></_></_>
        <_>
          <!-- tree 6 -->
          <_>
            <!-- root node -->
            <feature>
              <rects>
                <_>
                  1 1 6 4 -1.</_>
                <_>
                  1 3 6 2 2.</_></rects>
              <tilted>0</tilted></feature>
            <threshold>2.3945279419422150e-001</threshold>
            <left_val>-1.5802739188075066e-002</left_val>
            <right_val>-8.9207812500000000e+002</right_val></_></_>
        <_>
          <!-- tree 7 -->
          <_>
            <!-- root node -->
            <feature>
              <rects>
                <_>
                  5 0 5 10 -1.</_>
                <_>
                  5 5 5 5 2.</_></rects>
              <tilted>0</tilted></feature>
            <threshold>-6.2131118774414063e-001</threshold>
            <left_val>-7.5191718339920044e-001</left_val>
            <right_val>1.8430290743708611e-002</right_val></_></_>
        <_>
          <!-- tree 8 -->
          <_>
            <!-- root node -->
            <feature>
              <rects>
                <_>
                  0 0 5 10 -1.</_>
                <_>
                  0 5 5 5 2.</_></rects>
              <tilted>0</tilted></feature>
            <threshold>-2.3217479884624481e-001</threshold>
            <left_val>-3.9586859941482544e-001</left_val>
            <right_val>8.1989243626594543e-002</right_val></_></_>
        <_>
          <!-- tree 9 -->
          <_>
            <!-- root node -->
            <feature>
              <rects>
                <_>
                  6 0 4 3 -1.</_>
                <_>
                  6 0 2 3 2.</_></rects>
              <tilted>0</tilted></feature>
            <threshold>-1.4192210137844086e-001</threshold>
            <left_val>-7.4846571683883667e-001</left_val>
            <right_val>1.7548210918903351e-002</right_val></_></_>
        <_>
          <!-- tree 10 -->
          <_>
            <!-- root node -->
            <feature>
              <rects>
                <_>
                  0 0 4 3 -1.</_>
                <_>
                  2 0 2 3 2.</_></rects>
              <tilted>0</tilted></feature>
            <threshold>1.3323820196092129e-002</threshold>
            <left_val>8.7816126644611359e-002</left_val>
            <right_val>-2.7856510877609253e-001</right_val></_></_>
        <_>
          <!-- tree 11 -->
          <_>
            <!-- root node -->
            <feature>
              <rects>
                <_>
                  0 0 10 10 -1.</_>
                <_>
                  0 0 5 10 2.</_></rects>
              <tilted>0</tilted></feature>
            <threshold>7.6719552278518677e-001</threshold>
            <left_val>4.3175809085369110e-002</left_val>
            <right_val>-4.8843678832054138e-001</right_val></_></_>
        <_>
          <!-- tree 12 -->
          <_>
            <!-- root node -->
            <feature>
              <rects>
                <_>
                  3 0 4 9 -1.</_>
                <_>
                  5 0 2 9 2.</_></rects>
              <tilted>0</tilted></feature>
            <threshold>-1.7606720328330994e-001</threshold>
            <left_val>2.2522939741611481e-001</left_val>
            <right_val>-1.1264889687299728e-001</right_val></_></_>
        <_>
          <!-- tree 13 -->
          <_>
            <!-- root node -->
            <feature>
              <rects>
                <_>
                  0 0 10 4 -1.</_>
                <_>
                  0 2 10 2 2.</_></rects>
              <tilted>0</tilted></feature>
            <threshold>1.4045789837837219e-001</threshold>
            <left_val>2.5129379704594612e-002</left_val>
            <right_val>-7.1606791019439697e-001</right_val></_></_>
        <_>
          <!-- tree 14 -->
          <_>
            <!-- root node -->
            <feature>
              <rects>
                <_>
                  0 1 4 9 -1.</_>
                <_>
                  2 1 2 9 2.</_></rects>
              <tilted>0</tilted></feature>
            <threshold>-2.1481659263372421e-002</threshold>
            <left_val>7.8976422548294067e-002</left_val>
            <right_val>-2.2469599545001984e-001</right_val></_></_>
        <_>
          <!-- tree 15 -->
          <_>
            <!-- root node -->
            <feature>
              <rects>
                <_>
                  4 0 6 10 -1.</_>
                <_>
                  4 5 6 5 2.</_></rects>
              <tilted>0</tilted></feature>
            <threshold>3.6985790729522705e-001</threshold>
            <left_val>1.5473700128495693e-002</left_val>
            <right_val>-4.1649299860000610e-001</right_val></_></_>
        <_>
          <!-- tree 16 -->
          <_>
            <!-- root node -->
            <feature>
              <rects>
                <_>
                  0 0 6 10 -1.</_>
                <_>
                  3 0 3 10 2.</_></rects>
              <tilted>0</tilted></feature>
            <threshold>-6.4928960800170898e-001</threshold>
            <left_val>-5.4740852117538452e-001</left_val>
            <right_val>3.2469570636749268e-002</right_val></_></_>
        <_>
          <!-- tree 17 -->
          <_>
            <!-- root node -->
            <feature>
              <rects>
                <_>
                  4 5 2 3 -1.</_>
                <_>
                  4 6 2 1 3.</_></rects>
              <tilted>0</tilted></feature>
            <threshold>-6.2110401690006256e-002</threshold>
            <left_val>-6.4779210090637207e-001</left_val>
            <right_val>2.5817940011620522e-002</right_val></_></_>
        <_>
          <!-- tree 18 -->
          <_>
            <!-- root node -->
            <feature>
              <rects>
                <_>
                  4 5 2 2 -1.</_>
                <_>
                  4 6 2 1 2.</_></rects>
              <tilted>0</tilted></feature>
            <threshold>1.4332779683172703e-002</threshold>
            <left_val>6.5676547586917877e-002</left_val>
            <right_val>-2.5540369749069214e-001</right_val></_></_>
        <_>
          <!-- tree 19 -->
          <_>
            <!-- root node -->
            <feature>
              <rects>
                <_>
                  2 3 6 1 -1.</_>
                <_>
                  4 3 2 1 3.</_></rects>
              <tilted>0</tilted></feature>
            <threshold>-5.1405560225248337e-002</threshold>
            <left_val>2.3030799627304077e-001</left_val>
            <right_val>-8.6378976702690125e-002</right_val></_></_>
        <_>
          <!-- tree 20 -->
          <_>
            <!-- root node -->
            <feature>
              <rects>
                <_>
                  0 0 9 1 -1.</_>
                <_>
                  3 0 3 1 3.</_></rects>
              <tilted>0</tilted></feature>
            <threshold>8.4138929843902588e-002</threshold>
            <left_val>2.0151199772953987e-002</left_val>
            <right_val>-6.5653848648071289e-001</right_val></_></_>
        <_>
          <!-- tree 21 -->
          <_>
            <!-- root node -->
            <feature>
              <rects>
                <_>
                  4 5 3 1 -1.</_>
                <_>
                  5 5 1 1 3.</_></rects>
              <tilted>0</tilted></feature>
            <threshold>-4.1941050440073013e-002</threshold>
            <left_val>-8.0333739519119263e-001</left_val>
            <right_val>2.3826969787478447e-002</right_val></_></_>
        <_>
          <!-- tree 22 -->
          <_>
            <!-- root node -->
            <feature>
              <rects>
                <_>
                  4 5 2 1 -1.</_>
                <_>
                  5 5 1 1 2.</_></rects>
              <tilted>0</tilted></feature>
            <threshold>7.9943584278225899e-003</threshold>
            <left_val>2.9577309265732765e-002</left_val>
            <right_val>-4.6873688697814941e-001</right_val></_></_>
        <_>
          <!-- tree 23 -->
          <_>
            <!-- root node -->
            <feature>
              <rects>
                <_>
                  0 6 10 4 -1.</_>
                <_>
                  0 8 10 2 2.</_></rects>
              <tilted>0</tilted></feature>
            <threshold>4.5236119627952576e-001</threshold>
            <left_val>2.1333459764719009e-002</left_val>
            <right_val>-6.5235418081283569e-001</right_val></_></_>
        <_>
          <!-- tree 24 -->
          <_>
            <!-- root node -->
            <feature>
              <rects>
                <_>
                  1 8 2 2 -1.</_>
                <_>
                  1 9 2 1 2.</_></rects>
              <tilted>0</tilted></feature>
            <threshold>-5.3739771246910095e-003</threshold>
            <left_val>-2.4966700375080109e-001</left_val>
            <right_val>5.9602230787277222e-002</right_val></_></_>
        <_>
          <!-- tree 25 -->
          <_>
            <!-- root node -->
            <feature>
              <rects>
                <_>
                  0 1 10 9 -1.</_>
                <_>
                  0 1 5 9 2.</_></rects>
              <tilted>0</tilted></feature>
            <threshold>8.8254988193511963e-001</threshold>
            <left_val>1.5967529267072678e-002</left_val>
            <right_val>-8.3497691154479980e-001</right_val></_></_>
        <_>
          <!-- tree 26 -->
          <_>
            <!-- root node -->
            <feature>
              <rects>
                <_>
                  1 0 3 10 -1.</_>
                <_>
                  1 5 3 5 2.</_></rects>
              <tilted>0</tilted></feature>
            <threshold>2.5590410828590393e-001</threshold>
            <left_val>1.7445849254727364e-002</left_val>
            <right_val>-6.3571238517761230e-001</right_val></_></_>
        <_>
          <!-- tree 27 -->
          <_>
            <!-- root node -->
            <feature>
              <rects>
                <_>
                  7 3 1 4 -1.</_>
                <_>
                  7 5 1 2 2.</_></rects>
              <tilted>0</tilted></feature>
            <threshold>2.9314940795302391e-002</threshold>
            <left_val>-3.1557258218526840e-002</left_val>
            <right_val>3.4520530700683594e-001</right_val></_></_>
        <_>
          <!-- tree 28 -->
          <_>
            <!-- root node -->
            <feature>
              <rects>
                <_>
                  2 6 6 2 -1.</_>
                <_>
                  5 6 3 2 2.</_></rects>
              <tilted>0</tilted></feature>
            <threshold>-1.8440020084381104e-001</threshold>
            <left_val>3.8455611467361450e-001</left_val>
            <right_val>-4.5879438519477844e-002</right_val></_></_>
        <_>
          <!-- tree 29 -->
          <_>
            <!-- root node -->
            <feature>
              <rects>
                <_>
                  7 3 1 4 -1.</_>
                <_>
                  7 5 1 2 2.</_></rects>
              <tilted>0</tilted></feature>
            <threshold>-2.9917670413851738e-002</threshold>
            <left_val>1.1491940170526505e-001</left_val>
            <right_val>-5.7766500860452652e-002</right_val></_></_>
        <_>
          <!-- tree 30 -->
          <_>
            <!-- root node -->
            <feature>
              <rects>
                <_>
                  3 5 1 4 -1.</_>
                <_>
                  3 7 1 2 2.</_></rects>
              <tilted>0</tilted></feature>
            <threshold>4.0468830615282059e-002</threshold>
            <left_val>-6.8464487791061401e-002</left_val>
            <right_val>2.5378069281578064e-001</right_val></_></_>
        <_>
          <!-- tree 31 -->
          <_>
            <!-- root node -->
            <feature>
              <rects>
                <_>
                  7 3 1 6 -1.</_>
                <_>
                  7 5 1 2 3.</_></rects>
              <tilted>0</tilted></feature>
            <threshold>-3.2189849764108658e-002</threshold>
            <left_val>6.6277526319026947e-002</left_val>
            <right_val>-7.4890457093715668e-002</right_val></_></_>
        <_>
          <!-- tree 32 -->
          <_>
            <!-- root node -->
            <feature>
              <rects>
                <_>
                  0 1 10 6 -1.</_>
                <_>
                  0 4 10 3 2.</_></rects>
              <tilted>0</tilted></feature>
            <threshold>-4.1846579313278198e-001</threshold>
            <left_val>-2.7209419012069702e-001</left_val>
            <right_val>7.1293413639068604e-002</right_val></_></_>
        <_>
          <!-- tree 33 -->
          <_>
            <!-- root node -->
            <feature>
              <rects>
                <_>
                  5 2 1 4 -1.</_>
                <_>
                  5 4 1 2 2.</_></rects>
              <tilted>0</tilted></feature>
            <threshold>-4.9472279846668243e-002</threshold>
            <left_val>1.6204479336738586e-001</left_val>
            <right_val>-6.4809106290340424e-002</right_val></_></_>
        <_>
          <!-- tree 34 -->
          <_>
            <!-- root node -->
            <feature>
              <rects>
                <_>
                  1 0 8 2 -1.</_>
                <_>
                  1 1 8 1 2.</_></rects>
              <tilted>0</tilted></feature>
            <threshold>6.5813146531581879e-002</threshold>
            <left_val>1.9712610170245171e-002</left_val>
            <right_val>-7.2755742073059082e-001</right_val></_></_>
        <_>
          <!-- tree 35 -->
          <_>
            <!-- root node -->
            <feature>
              <rects>
                <_>
                  4 5 2 2 -1.</_>
                <_>
                  4 5 1 2 2.</_></rects>
              <tilted>0</tilted></feature>
            <threshold>1.1417910456657410e-002</threshold>
            <left_val>9.4566307961940765e-002</left_val>
            <right_val>-1.3743220269680023e-001</right_val></_></_>
        <_>
          <!-- tree 36 -->
          <_>
            <!-- root node -->
            <feature>
              <rects>
                <_>
                  2 3 2 6 -1.</_>
                <_>
                  2 5 2 2 3.</_></rects>
              <tilted>0</tilted></feature>
            <threshold>3.9497669786214828e-002</threshold>
            <left_val>-5.3186621516942978e-002</left_val>
            <right_val>2.8756389021873474e-001</right_val></_></_>
        <_>
          <!-- tree 37 -->
          <_>
            <!-- root node -->
            <feature>
              <rects>
                <_>
                  4 5 3 1 -1.</_>
                <_>
                  5 5 1 1 3.</_></rects>
              <tilted>0</tilted></feature>
            <threshold>-4.8818599432706833e-002</threshold>
            <left_val>-8.7538111209869385e-001</left_val>
            <right_val>5.3076110780239105e-003</right_val></_></_>
        <_>
          <!-- tree 38 -->
          <_>
            <!-- root node -->
            <feature>
              <rects>
                <_>
                  3 5 3 1 -1.</_>
                <_>
                  4 5 1 1 3.</_></rects>
              <tilted>0</tilted></feature>
            <threshold>-3.6499910056591034e-002</threshold>
            <left_val>-6.3042032718658447e-001</left_val>
            <right_val>2.0385760813951492e-002</right_val></_></_>
        <_>
          <!-- tree 39 -->
          <_>
            <!-- root node -->
            <feature>
              <rects>
                <_>
                  7 3 2 2 -1.</_>
                <_>
                  8 3 1 1 2.</_>
                <_>
                  7 4 1 1 2.</_></rects>
              <tilted>0</tilted></feature>
            <threshold>-9.5627736300230026e-003</threshold>
            <left_val>1.9060690701007843e-001</left_val>
            <right_val>-7.7390506863594055e-002</right_val></_></_>
        <_>
          <!-- tree 40 -->
          <_>
            <!-- root node -->
            <feature>
              <rects>
                <_>
                  4 4 2 2 -1.</_>
                <_>
                  4 5 2 1 2.</_></rects>
              <tilted>0</tilted></feature>
            <threshold>1.7212409526109695e-002</threshold>
            <left_val>3.0317880213260651e-002</left_val>
            <right_val>-4.0199118852615356e-001</right_val></_></_>
        <_>
          <!-- tree 41 -->
          <_>
            <!-- root node -->
            <feature>
              <rects>
                <_>
                  1 1 9 4 -1.</_>
                <_>
                  4 1 3 4 3.</_></rects>
              <tilted>0</tilted></feature>
            <threshold>2.0639370381832123e-001</threshold>
            <left_val>1.3971620239317417e-002</left_val>
            <right_val>-7.0110750198364258e-001</right_val></_></_>
        <_>
          <!-- tree 42 -->
          <_>
            <!-- root node -->
            <feature>
              <rects>
                <_>
                  0 0 10 3 -1.</_>
                <_>
                  5 0 5 3 2.</_></rects>
              <tilted>0</tilted></feature>
            <threshold>-2.7425730228424072e-001</threshold>
            <left_val>-6.3759851455688477e-001</left_val>
            <right_val>1.6520859673619270e-002</right_val></_></_>
        <_>
          <!-- tree 43 -->
          <_>
            <!-- root node -->
            <feature>
              <rects>
                <_>
                  3 2 6 1 -1.</_>
                <_>
                  5 2 2 1 3.</_></rects>
              <tilted>0</tilted></feature>
            <threshold>-5.6586831808090210e-002</threshold>
            <left_val>2.2451190650463104e-001</left_val>
            <right_val>-4.1879981756210327e-002</right_val></_></_>
        <_>
          <!-- tree 44 -->
          <_>
            <!-- root node -->
            <feature>
              <rects>
                <_>
                  0 0 9 2 -1.</_>
                <_>
                  0 1 9 1 2.</_></rects>
              <tilted>0</tilted></feature>
            <threshold>-1.1474160104990005e-001</threshold>
            <left_val>-8.6774992942810059e-001</left_val>
            <right_val>1.4898019842803478e-002</right_val></_></_>
        <_>
          <!-- tree 45 -->
          <_>
            <!-- root node -->
            <feature>
              <rects>
                <_>
                  0 7 10 3 -1.</_>
                <_>
                  0 7 5 3 2.</_></rects>
              <tilted>0</tilted></feature>
            <threshold>-2.3292809724807739e-001</threshold>
            <left_val>-6.7940360307693481e-001</left_val>
            <right_val>1.3624650426208973e-002</right_val></_></_>
        <_>
          <!-- tree 46 -->
          <_>
            <!-- root node -->
            <feature>
              <rects>
                <_>
                  0 4 10 6 -1.</_>
                <_>
                  0 4 5 3 2.</_>
                <_>
                  5 7 5 3 2.</_></rects>
              <tilted>0</tilted></feature>
            <threshold>-3.0535110831260681e-001</threshold>
            <left_val>-7.0776641368865967e-001</left_val>
            <right_val>1.5089600346982479e-002</right_val></_></_>
        <_>
          <!-- tree 47 -->
          <_>
            <!-- root node -->
            <feature>
              <rects>
                <_>
                  7 6 3 1 -1.</_>
                <_>
                  8 6 1 1 3.</_></rects>
              <tilted>0</tilted></feature>
            <threshold>1.3726719655096531e-002</threshold>
            <left_val>-7.8280210494995117e-002</left_val>
            <right_val>1.8455609679222107e-001</right_val></_></_>
        <_>
          <!-- tree 48 -->
          <_>
            <!-- root node -->
            <feature>
              <rects>
                <_>
                  3 0 4 9 -1.</_>
                <_>
                  3 3 4 3 3.</_></rects>
              <tilted>0</tilted></feature>
            <threshold>-4.2991939187049866e-001</threshold>
            <left_val>2.3535220324993134e-001</left_val>
            <right_val>-5.5468369275331497e-002</right_val></_></_>
        <_>
          <!-- tree 49 -->
          <_>
            <!-- root node -->
            <feature>
              <rects>
                <_>
                  5 4 2 6 -1.</_>
                <_>
                  5 6 2 2 3.</_></rects>
              <tilted>0</tilted></feature>
            <threshold>-1.0852700099349022e-002</threshold>
            <left_val>6.8037033081054688e-002</left_val>
            <right_val>-1.8879750370979309e-001</right_val></_></_>
        <_>
          <!-- tree 50 -->
          <_>
            <!-- root node -->
            <feature>
              <rects>
                <_>
                  2 2 6 6 -1.</_>
                <_>
                  2 2 3 3 2.</_>
                <_>
                  5 5 3 3 2.</_></rects>
              <tilted>0</tilted></feature>
            <threshold>8.3653047680854797e-002</threshold>
            <left_val>-5.4506100714206696e-002</left_val>
            <right_val>2.6761931180953979e-001</right_val></_></_>
        <_>
          <!-- tree 51 -->
          <_>
            <!-- root node -->
            <feature>
              <rects>
                <_>
                  7 5 3 1 -1.</_>
                <_>
                  8 5 1 1 3.</_></rects>
              <tilted>0</tilted></feature>
            <threshold>-9.8255565389990807e-003</threshold>
            <left_val>1.9810889661312103e-001</left_val>
            <right_val>-4.6280950307846069e-002</right_val></_></_>
        <_>
          <!-- tree 52 -->
          <_>
            <!-- root node -->
            <feature>
              <rects>
                <_>
                  0 6 3 1 -1.</_>
                <_>
                  1 6 1 1 3.</_></rects>
              <tilted>0</tilted></feature>
            <threshold>3.8760688155889511e-002</threshold>
            <left_val>1.5215990133583546e-002</left_val>
            <right_val>-8.9654487371444702e-001</right_val></_></_>
        <_>
          <!-- tree 53 -->
          <_>
            <!-- root node -->
            <feature>
              <rects>
                <_>
                  2 6 6 2 -1.</_>
                <_>
                  4 6 2 2 3.</_></rects>
              <tilted>0</tilted></feature>
            <threshold>1.0002010315656662e-001</threshold>
            <left_val>-2.9607029631733894e-002</left_val>
            <right_val>4.9955898523330688e-001</right_val></_></_>
        <_>
          <!-- tree 54 -->
          <_>
            <!-- root node -->
            <feature>
              <rects>
                <_>
                  0 3 6 6 -1.</_>
                <_>
                  3 3 3 6 2.</_></rects>
              <tilted>0</tilted></feature>
            <threshold>-3.7361111491918564e-002</threshold>
            <left_val>2.6259470731019974e-002</left_val>
            <right_val>-5.8466589450836182e-001</right_val></_></_>
        <_>
          <!-- tree 55 -->
          <_>
            <!-- root node -->
            <feature>
              <rects>
                <_>
                  7 1 3 9 -1.</_>
                <_>
                  8 1 1 9 3.</_></rects>
              <tilted>0</tilted></feature>
            <threshold>2.0063710212707520e-001</threshold>
            <left_val>7.7224019914865494e-003</left_val>
            <right_val>-7.8588670492172241e-001</right_val></_></_>
        <_>
          <!-- tree 56 -->
          <_>
            <!-- root node -->
            <feature>
              <rects>
                <_>
                  0 1 3 9 -1.</_>
                <_>
                  1 1 1 9 3.</_></rects>
              <tilted>0</tilted></feature>
            <threshold>-2.8609920293092728e-002</threshold>
            <left_val>2.3507870733737946e-001</left_val>
            <right_val>-5.8331970125436783e-002</right_val></_></_>
        <_>
          <!-- tree 57 -->
          <_>
            <!-- root node -->
            <feature>
              <rects>
                <_>
                  8 0 2 10 -1.</_>
                <_>
                  8 0 1 10 2.</_></rects>
              <tilted>0</tilted></feature>
            <threshold>8.4738641977310181e-002</threshold>
            <left_val>1.3559719547629356e-002</left_val>
            <right_val>-7.6108807325363159e-001</right_val></_></_>
        <_>
          <!-- tree 58 -->
          <_>
            <!-- root node -->
            <feature>
              <rects>
                <_>
                  0 0 2 10 -1.</_>
                <_>
                  1 0 1 10 2.</_></rects>
              <tilted>0</tilted></feature>
            <threshold>-1.4115519821643829e-001</threshold>
            <left_val>-8.6953091621398926e-001</left_val>
            <right_val>1.1782829649746418e-002</right_val></_></_>
        <_>
          <!-- tree 59 -->
          <_>
            <!-- root node -->
            <feature>
              <rects>
                <_>
                  6 5 2 1 -1.</_>
                <_>
                  6 5 1 1 2.</_></rects>
              <tilted>0</tilted></feature>
            <threshold>-3.8371209055185318e-002</threshold>
            <left_val>-7.1911078691482544e-001</left_val>
            <right_val>6.6194278188049793e-003</right_val></_></_>
        <_>
          <!-- tree 60 -->
          <_>
            <!-- root node -->
            <feature>
              <rects>
                <_>
                  2 5 2 1 -1.</_>
                <_>
                  3 5 1 1 2.</_></rects>
              <tilted>0</tilted></feature>
            <threshold>-3.7056140601634979e-002</threshold>
            <left_val>-8.5201859474182129e-001</left_val>
            <right_val>1.2608700431883335e-002</right_val></_></_>
        <_>
          <!-- tree 61 -->
          <_>
            <!-- root node -->
