<?xml version="1.0"?>
<opencv_storage>
<xml type_id="opencv-haar-classifier">
  <size>
    30 30</size>
  <stages>
    <_>
      <!-- stage 0 -->
      <trees>
        <_>
          <!-- tree 0 -->
          <_>
            <!-- root node -->
            <feature>
              <rects>
                <_>
                  8 12 10 9 -1.</_>
                <_>
                  13 12 5 9 2.</_></rects>
              <tilted>0</tilted></feature>
            <threshold>2.3468490689992905e-002</threshold>
            <left_val>-5.6211841106414795e-001</left_val>
            <right_val>5.6690949201583862e-001</right_val></_></_>
        <_>
          <!-- tree 1 -->
          <_>
            <!-- root node -->
            <feature>
              <rects>
                <_>
                  10 10 10 15 -1.</_>
                <_>
                  10 15 10 5 3.</_></rects>
              <tilted>0</tilted></feature>
            <threshold>4.7251619398593903e-002</threshold>
            <left_val>-4.2511230707168579e-001</left_val>
            <right_val>5.5653750896453857e-001</right_val></_></_>
        <_>
          <!-- tree 2 -->
          <_>
            <!-- root node -->
            <feature>
              <rects>
                <_>
                  10 14 10 4 -1.</_>
                <_>
                  10 14 5 2 2.</_>
                <_>
                  15 16 5 2 2.</_></rects>
              <tilted>0</tilted></feature>
            <threshold>1.3563849963247776e-002</threshold>
            <left_val>-1.8821449577808380e-001</left_val>
            <right_val>7.7452301979064941e-001</right_val></_></_>
        <_>
          <!-- tree 3 -->
          <_>
            <!-- root node -->
            <feature>
              <rects>
                <_>
                  11 12 18 11 -1.</_>
                <_>
                  17 12 6 11 3.</_></rects>
              <tilted>0</tilted></feature>
            <threshold>7.4342302978038788e-002</threshold>
            <left_val>-1.1375460028648376e-001</left_val>
            <right_val>3.3454430103302002e-001</right_val></_></_>
        <_>
          <!-- tree 4 -->
          <_>
            <!-- root node -->
            <feature>
              <rects>
                <_>
                  13 14 2 3 -1.</_>
                <_>
                  13 15 2 1 3.</_></rects>
              <tilted>0</tilted></feature>
            <threshold>-2.0934839267283678e-003</threshold>
            <left_val>8.0102497339248657e-001</left_val>
            <right_val>-1.9588880240917206e-001</right_val></_></_>
        <_>
          <!-- tree 5 -->
          <_>
            <!-- root node -->
            <feature>
              <rects>
                <_>
                  10 13 12 7 -1.</_>
                <_>
                  10 13 6 7 2.</_></rects>
              <tilted>0</tilted></feature>
            <threshold>4.9697630107402802e-002</threshold>
            <left_val>5.6613967753946781e-003</left_val>
            <right_val>4.2615291476249695e-001</right_val></_></_>
        <_>
          <!-- tree 6 -->
          <_>
            <!-- root node -->
            <feature>
              <rects>
                <_>
                  13 13 1 6 -1.</_>
                <_>
                  13 15 1 2 3.</_></rects>
              <tilted>0</tilted></feature>
            <threshold>3.7562958896160126e-003</threshold>
            <left_val>-1.9670259952545166e-001</left_val>
            <right_val>6.9381982088088989e-001</right_val></_></_>
        <_>
          <!-- tree 7 -->
          <_>
            <!-- root node -->
            <feature>
              <rects>
                <_>
                  15 15 2 3 -1.</_>
                <_>
                  15 16 2 1 3.</_></rects>
              <tilted>0</tilted></feature>
            <threshold>-2.1648120600730181e-003</threshold>
            <left_val>7.5126338005065918e-001</left_val>
            <right_val>-1.0794869810342789e-001</right_val></_></_>
        <_>
          <!-- tree 8 -->
          <_>
            <!-- root node -->
            <feature>
              <rects>
                <_>
                  14 16 2 2 -1.</_>
                <_>
                  14 16 1 1 2.</_>
                <_>
                  15 17 1 1 2.</_></rects>
              <tilted>0</tilted></feature>
            <threshold>-5.3074862807989120e-004</threshold>
            <left_val>6.8969702720642090e-001</left_val>
            <right_val>-1.9375149905681610e-001</right_val></_></_>
        <_>
          <!-- tree 9 -->
          <_>
            <!-- root node -->
            <feature>
              <rects>
                <_>
                  13 17 6 1 -1.</_>
                <_>
                  15 17 2 1 3.</_></rects>
              <tilted>0</tilted></feature>
            <threshold>4.5614708214998245e-003</threshold>
            <left_val>-1.3121220469474792e-001</left_val>
            <right_val>7.2001951932907104e-001</right_val></_></_>
        <_>
          <!-- tree 10 -->
          <_>
            <!-- root node -->
            <feature>
              <rects>
                <_>
                  12 17 6 3 -1.</_>
                <_>
                  14 17 2 3 3.</_></rects>
              <tilted>0</tilted></feature>
            <threshold>-1.0238899849355221e-002</threshold>
            <left_val>7.6981830596923828e-001</left_val>
            <right_val>-1.1540249735116959e-001</right_val></_></_></trees>
      <stage_threshold>-1.3732130527496338e+000</stage_threshold>
      <parent>-1</parent>
      <next>-1</next></_>
    <_>
      <!-- stage 1 -->
      <trees>
        <_>
          <!-- tree 0 -->
          <_>
            <!-- root node -->
            <feature>
              <rects>
                <_>
                  9 7 12 14 -1.</_>
                <_>
                  9 14 12 7 2.</_></rects>
              <tilted>0</tilted></feature>
            <threshold>2.7342459186911583e-002</threshold>
            <left_val>-5.6122362613677979e-001</left_val>
            <right_val>3.3738368749618530e-001</right_val></_></_>
        <_>
          <!-- tree 1 -->
          <_>
            <!-- root node -->
            <feature>
              <rects>
                <_>
                  16 8 10 14 -1.</_>
                <_>
                  16 15 10 7 2.</_></rects>
              <tilted>0</tilted></feature>
            <threshold>1.7648020759224892e-002</threshold>
            <left_val>-2.5851228833198547e-001</left_val>
            <right_val>1.3699489831924438e-001</right_val></_></_>
        <_>
          <!-- tree 2 -->
          <_>
            <!-- root node -->
            <feature>
              <rects>
                <_>
                  1 0 24 21 -1.</_>
                <_>
                  1 7 24 7 3.</_></rects>
              <tilted>0</tilted></feature>
            <threshold>6.6980361938476563e-001</threshold>
            <left_val>-1.6770249931141734e-003</left_val>
            <right_val>-2.0565639648437500e+003</right_val></_></_>
        <_>
          <!-- tree 3 -->
          <_>
            <!-- root node -->
            <feature>
              <rects>
                <_>
                  5 8 24 14 -1.</_>
                <_>
                  5 15 24 7 2.</_></rects>
              <tilted>0</tilted></feature>
            <threshold>2.4687150120735168e-001</threshold>
            <left_val>2.1685089915990829e-002</left_val>
            <right_val>-3.7729421257972717e-001</right_val></_></_>
        <_>
          <!-- tree 4 -->
          <_>
            <!-- root node -->
            <feature>
              <rects>
                <_>
                  12 13 6 6 -1.</_>
                <_>
                  15 13 3 6 2.</_></rects>
              <tilted>0</tilted></feature>
            <threshold>1.8658559769392014e-002</threshold>
            <left_val>-2.5090551376342773e-001</left_val>
            <right_val>5.7116872072219849e-001</right_val></_></_>
        <_>
          <!-- tree 5 -->
          <_>
            <!-- root node -->
            <feature>
              <rects>
                <_>
                  9 12 12 7 -1.</_>
                <_>
                  13 12 4 7 3.</_></rects>
              <tilted>0</tilted></feature>
            <threshold>4.5871939510107040e-002</threshold>
            <left_val>-2.1378730237483978e-001</left_val>
            <right_val>5.9615761041641235e-001</right_val></_></_>
        <_>
          <!-- tree 6 -->
          <_>
            <!-- root node -->
            <feature>
              <rects>
                <_>
                  14 12 1 6 -1.</_>
                <_>
                  14 14 1 2 3.</_></rects>
              <tilted>0</tilted></feature>
            <threshold>-4.5300410129129887e-003</threshold>
            <left_val>7.9351347684860229e-001</left_val>
            <right_val>-1.4009730517864227e-001</right_val></_></_>
        <_>
          <!-- tree 7 -->
          <_>
            <!-- root node -->
            <feature>
              <rects>
                <_>
                  12 15 6 2 -1.</_>
                <_>
                  15 15 3 1 2.</_>
                <_>
                  12 16 3 1 2.</_></rects>
              <tilted>0</tilted></feature>
            <threshold>-2.9327129013836384e-003</threshold>
            <left_val>7.1100622415542603e-001</left_val>
            <right_val>-1.7145329713821411e-001</right_val></_></_>
        <_>
          <!-- tree 8 -->
          <_>
            <!-- root node -->
            <feature>
              <rects>
                <_>
                  12 15 4 2 -1.</_>
                <_>
                  12 15 2 1 2.</_>
                <_>
                  14 16 2 1 2.</_></rects>
              <tilted>0</tilted></feature>
            <threshold>-1.8403109861537814e-003</threshold>
            <left_val>7.4896347522735596e-001</left_val>
            <right_val>-1.7534039914608002e-001</right_val></_></_>
        <_>
          <!-- tree 9 -->
          <_>
            <!-- root node -->
            <feature>
              <rects>
                <_>
                  12 13 6 1 -1.</_>
                <_>
                  14 13 2 1 3.</_></rects>
              <tilted>0</tilted></feature>
            <threshold>-3.5819469485431910e-003</threshold>
            <left_val>7.0265448093414307e-001</left_val>
            <right_val>-7.4622899293899536e-002</right_val></_></_>
        <_>
          <!-- tree 10 -->
          <_>
            <!-- root node -->
            <feature>
              <rects>
                <_>
                  12 13 1 6 -1.</_>
                <_>
                  12 15 1 2 3.</_></rects>
              <tilted>0</tilted></feature>
            <threshold>4.7124591656029224e-003</threshold>
            <left_val>-1.2953700125217438e-001</left_val>
            <right_val>6.7053717374801636e-001</right_val></_></_>
        <_>
          <!-- tree 11 -->
          <_>
            <!-- root node -->
            <feature>
              <rects>
                <_>
                  12 14 6 2 -1.</_>
                <_>
                  15 14 3 1 2.</_>
                <_>
                  12 15 3 1 2.</_></rects>
              <tilted>0</tilted></feature>
            <threshold>-3.7571210414171219e-003</threshold>
            <left_val>6.9431251287460327e-001</left_val>
            <right_val>-1.2962110340595245e-001</right_val></_></_>
        <_>
          <!-- tree 12 -->
          <_>
            <!-- root node -->
            <feature>
              <rects>
                <_>
                  14 13 2 4 -1.</_>
                <_>
                  14 13 1 2 2.</_>
                <_>
                  15 15 1 2 2.</_></rects>
              <tilted>0</tilted></feature>
            <threshold>-1.7790329875424504e-003</threshold>
            <left_val>5.7027208805084229e-001</left_val>
            <right_val>-1.3067430257797241e-001</right_val></_></_>
        <_>
          <!-- tree 13 -->
          <_>
            <!-- root node -->
            <feature>
              <rects>
                <_>
                  15 13 1 6 -1.</_>
                <_>
                  15 15 1 2 3.</_></rects>
              <tilted>0</tilted></feature>
            <threshold>-6.1332569457590580e-003</threshold>
            <left_val>6.9376939535140991e-001</left_val>
            <right_val>-8.1045933067798615e-002</right_val></_></_>
        <_>
          <!-- tree 14 -->
          <_>
            <!-- root node -->
            <feature>
              <rects>
                <_>
                  0 12 30 15 -1.</_>
                <_>
                  10 12 10 15 3.</_></rects>
              <tilted>0</tilted></feature>
            <threshold>1.2585639953613281e-001</threshold>
            <left_val>-2.3148240149021149e-001</left_val>
            <right_val>3.0961960554122925e-001</right_val></_></_>
        <_>
          <!-- tree 15 -->
          <_>
            <!-- root node -->
            <feature>
              <rects>
                <_>
                  14 16 4 2 -1.</_>
                <_>
                  16 16 2 1 2.</_>
                <_>
                  14 17 2 1 2.</_></rects>
              <tilted>0</tilted></feature>
            <threshold>-2.8504400979727507e-003</threshold>
            <left_val>6.8494540452957153e-001</left_val>
            <right_val>-1.1614149808883667e-001</right_val></_></_>
        <_>
          <!-- tree 16 -->
          <_>
            <!-- root node -->
            <feature>
              <rects>
                <_>
                  13 16 4 2 -1.</_>
                <_>
                  13 16 2 1 2.</_>
                <_>
                  15 17 2 1 2.</_></rects>
              <tilted>0</tilted></feature>
            <threshold>-1.7403239617124200e-003</threshold>
            <left_val>5.5277109146118164e-001</left_val>
            <right_val>-1.5276420116424561e-001</right_val></_></_>
        <_>
          <!-- tree 17 -->
          <_>
            <!-- root node -->
            <feature>
              <rects>
                <_>
                  26 14 1 15 -1.</_>
                <_>
                  26 19 1 5 3.</_></rects>
              <tilted>0</tilted></feature>
            <threshold>-5.0222058780491352e-003</threshold>
            <left_val>-3.6946749687194824e-001</left_val>
            <right_val>1.0831610113382339e-001</right_val></_></_></trees>
      <stage_threshold>-1.4422479867935181e+000</stage_threshold>
      <parent>0</parent>
      <next>-1</next></_>
    <_>
      <!-- stage 2 -->
      <trees>
        <_>
          <!-- tree 0 -->
          <_>
            <!-- root node -->
            <feature>
              <rects>
                <_>
                  10 12 8 9 -1.</_>
                <_>
                  14 12 4 9 2.</_></rects>
              <tilted>0</tilted></feature>
            <threshold>2.5713099166750908e-002</threshold>
            <left_val>-3.6736300587654114e-001</left_val>
            <right_val>3.7430998682975769e-001</right_val></_></_>
        <_>
          <!-- tree 1 -->
          <_>
            <!-- root node -->
            <feature>
              <rects>
                <_>
                  12 13 6 9 -1.</_>
                <_>
                  12 16 6 3 3.</_></rects>
              <tilted>0</tilted></feature>
            <threshold>3.0934140086174011e-002</threshold>
            <left_val>-2.4147799611091614e-001</left_val>
            <right_val>5.7946038246154785e-001</right_val></_></_>
        <_>
          <!-- tree 2 -->
          <_>
            <!-- root node -->
            <feature>
              <rects>
                <_>
                  13 12 2 6 -1.</_>
                <_>
                  13 14 2 2 3.</_></rects>
              <tilted>0</tilted></feature>
            <threshold>8.0613894388079643e-003</threshold>
            <left_val>-1.5076990425586700e-001</left_val>
            <right_val>6.6952878236770630e-001</right_val></_></_>
        <_>
          <!-- tree 3 -->
          <_>
            <!-- root node -->
            <feature>
              <rects>
                <_>
                  14 12 2 4 -1.</_>
                <_>
                  15 12 1 2 2.</_>
                <_>
                  14 14 1 2 2.</_></rects>
              <tilted>0</tilted></feature>
            <threshold>-2.1619109902530909e-003</threshold>
            <left_val>6.9363552331924438e-001</left_val>
            <right_val>-1.4378920197486877e-001</right_val></_></_>
        <_>
          <!-- tree 4 -->
          <_>
            <!-- root node -->
            <feature>
              <rects>
                <_>
                  14 11 2 6 -1.</_>
                <_>
                  14 11 1 3 2.</_>
                <_>
                  15 14 1 3 2.</_></rects>
              <tilted>0</tilted></feature>
            <threshold>-2.7390259783715010e-003</threshold>
            <left_val>6.2363642454147339e-001</left_val>
            <right_val>-1.3858869671821594e-001</right_val></_></_>
        <_>
          <!-- tree 5 -->
          <_>
            <!-- root node -->
            <feature>
              <rects>
                <_>
                  15 13 1 6 -1.</_>
                <_>
                  15 15 1 2 3.</_></rects>
              <tilted>0</tilted></feature>
            <threshold>-4.4866679236292839e-003</threshold>
            <left_val>6.3843172788619995e-001</left_val>
            <right_val>-8.9367248117923737e-002</right_val></_></_>
        <_>
          <!-- tree 6 -->
          <_>
            <!-- root node -->
            <feature>
              <rects>
                <_>
                  9 13 12 4 -1.</_>
                <_>
                  9 13 6 2 2.</_>
                <_>
                  15 15 6 2 2.</_></rects>
              <tilted>0</tilted></feature>
            <threshold>1.8295500427484512e-002</threshold>
            <left_val>-1.2810340523719788e-001</left_val>
            <right_val>5.7354730367660522e-001</right_val></_></_>
        <_>
          <!-- tree 7 -->
          <_>
            <!-- root node -->
            <feature>
              <rects>
                <_>
                  16 11 1 6 -1.</_>
                <_>
                  16 13 1 2 3.</_></rects>
              <tilted>0</tilted></feature>
            <threshold>-6.4417929388582706e-003</threshold>
            <left_val>6.3314378261566162e-001</left_val>
            <right_val>-7.7638491988182068e-002</right_val></_></_>
        <_>
          <!-- tree 8 -->
          <_>
            <!-- root node -->
            <feature>
              <rects>
                <_>
                  14 9 2 6 -1.</_>
                <_>
                  14 9 1 3 2.</_>
                <_>
                  15 12 1 3 2.</_></rects>
              <tilted>0</tilted></feature>
            <threshold>3.3984149340540171e-003</threshold>
            <left_val>-1.1382929980754852e-001</left_val>
            <right_val>6.6900402307510376e-001</right_val></_></_>
        <_>
          <!-- tree 9 -->
          <_>
            <!-- root node -->
            <feature>
              <rects>
                <_>
                  10 6 19 24 -1.</_>
                <_>
                  10 14 19 8 3.</_></rects>
              <tilted>0</tilted></feature>
            <threshold>7.2218731045722961e-002</threshold>
            <left_val>-3.0960661172866821e-001</left_val>
            <right_val>2.0023520290851593e-001</right_val></_></_>
        <_>
          <!-- tree 10 -->
          <_>
            <!-- root node -->
            <feature>
              <rects>
                <_>
                  12 18 6 1 -1.</_>
                <_>
                  14 18 2 1 3.</_></rects>
              <tilted>0</tilted></feature>
            <threshold>-4.6620629727840424e-003</threshold>
            <left_val>6.5868330001831055e-001</left_val>
            <right_val>-1.1729399859905243e-001</right_val></_></_>
        <_>
          <!-- tree 11 -->
          <_>
            <!-- root node -->
            <feature>
              <rects>
                <_>
                  12 13 6 2 -1.</_>
                <_>
                  14 13 2 2 3.</_></rects>
              <tilted>0</tilted></feature>
            <threshold>-7.9251546412706375e-003</threshold>
            <left_val>6.0271692276000977e-001</left_val>
            <right_val>-8.9126050472259521e-002</right_val></_></_>
        <_>
          <!-- tree 12 -->
          <_>
            <!-- root node -->
            <feature>
              <rects>
                <_>
                  9 11 12 6 -1.</_>
                <_>
                  13 11 4 6 3.</_></rects>
              <tilted>0</tilted></feature>
            <threshold>4.4250149279832840e-002</threshold>
            <left_val>-1.4687630534172058e-001</left_val>
            <right_val>4.5414999127388000e-001</right_val></_></_>
        <_>
          <!-- tree 13 -->
          <_>
            <!-- root node -->
            <feature>
              <rects>
                <_>
                  15 16 1 4 -1.</_>
                <_>
                  15 18 1 2 2.</_></rects>
              <tilted>0</tilted></feature>
            <threshold>3.9258771575987339e-003</threshold>
            <left_val>-1.1255329847335815e-001</left_val>
            <right_val>6.4859902858734131e-001</right_val></_></_>
        <_>
          <!-- tree 14 -->
          <_>
            <!-- root node -->
            <feature>
              <rects>
                <_>
                  12 13 3 3 -1.</_>
                <_>
                  12 14 3 1 3.</_></rects>
              <tilted>0</tilted></feature>
            <threshold>-3.6850199103355408e-003</threshold>
            <left_val>6.2275457382202148e-001</left_val>
            <right_val>-8.4921807050704956e-002</right_val></_></_>
        <_>
          <!-- tree 15 -->
          <_>
            <!-- root node -->
            <feature>
              <rects>
                <_>
                  0 12 30 18 -1.</_>
                <_>
                  10 12 10 18 3.</_></rects>
              <tilted>0</tilted></feature>
            <threshold>1.4657150208950043e-001</threshold>
            <left_val>-2.3017220199108124e-001</left_val>
            <right_val>2.6057979464530945e-001</right_val></_></_>
        <_>
          <!-- tree 16 -->
          <_>
            <!-- root node -->
            <feature>
              <rects>
                <_>
                  12 15 1 6 -1.</_>
                <_>
                  12 17 1 2 3.</_></rects>
              <tilted>0</tilted></feature>
            <threshold>-4.3429997749626637e-003</threshold>
            <left_val>5.9293788671493530e-001</left_val>
            <right_val>-8.2385741174221039e-002</right_val></_></_>
        <_>
          <!-- tree 17 -->
          <_>
            <!-- root node -->
            <feature>
              <rects>
                <_>
                  16 14 1 3 -1.</_>
                <_>
                  16 15 1 1 3.</_></rects>
              <tilted>0</tilted></feature>
            <threshold>-1.9040190381929278e-003</threshold>
            <left_val>5.5267661809921265e-001</left_val>
            <right_val>-6.4068503677845001e-002</right_val></_></_>
        <_>
          <!-- tree 18 -->
          <_>
            <!-- root node -->
            <feature>
              <rects>
                <_>
                  13 16 4 2 -1.</_>
                <_>
                  13 16 2 1 2.</_>
                <_>
                  15 17 2 1 2.</_></rects>
              <tilted>0</tilted></feature>
            <threshold>-1.8067529890686274e-003</threshold>
            <left_val>4.4750139117240906e-001</left_val>
            <right_val>-1.3620389997959137e-001</right_val></_></_>
        <_>
          <!-- tree 19 -->
          <_>
            <!-- root node -->
            <feature>
              <rects>
                <_>
                  25 11 5 18 -1.</_>
                <_>
                  25 17 5 6 3.</_></rects>
              <tilted>0</tilted></feature>
            <threshold>5.0002269446849823e-002</threshold>
            <left_val>5.1568340510129929e-002</left_val>
            <right_val>-4.9568301439285278e-001</right_val></_></_></trees>
      <stage_threshold>-1.4651190042495728e+000</stage_threshold>
      <parent>1</parent>
      <next>-1</next></_>
    <_>
      <!-- stage 3 -->
      <trees>
        <_>
          <!-- tree 0 -->
          <_>
            <!-- root node -->
            <feature>
              <rects>
                <_>
                  6 15 12 6 -1.</_>
                <_>
                  12 15 6 6 2.</_></rects>
              <tilted>0</tilted></feature>
            <threshold>1.4852449297904968e-001</threshold>
            <left_val>9.0291410742793232e-005</left_val>
            <right_val>-1.5900069580078125e+003</right_val></_></_>
        <_>
          <!-- tree 1 -->
          <_>
            <!-- root node -->
            <feature>
              <rects>
                <_>
                  10 8 10 21 -1.</_>
                <_>
                  10 15 10 7 3.</_></rects>
              <tilted>0</tilted></feature>
            <threshold>5.5045221000909805e-002</threshold>
            <left_val>-4.1781440377235413e-001</left_val>
            <right_val>2.4738700687885284e-001</right_val></_></_>
        <_>
          <!-- tree 2 -->
          <_>
            <!-- root node -->
            <feature>
              <rects>
                <_>
                  9 11 10 12 -1.</_>
                <_>
                  14 11 5 12 2.</_></rects>
              <tilted>0</tilted></feature>
            <threshold>1.9848300144076347e-002</threshold>
            <left_val>-4.4138661026954651e-001</left_val>
            <right_val>2.1787980198860168e-001</right_val></_></_>
        <_>
          <!-- tree 3 -->
          <_>
            <!-- root node -->
            <feature>
              <rects>
                <_>
                  13 14 4 2 -1.</_>
                <_>
                  15 14 2 1 2.</_>
                <_>
                  13 15 2 1 2.</_></rects>
              <tilted>0</tilted></feature>
            <threshold>-3.0336070340126753e-003</threshold>
            <left_val>6.7645239830017090e-001</left_val>
            <right_val>-1.2747029960155487e-001</right_val></_></_>
        <_>
          <!-- tree 4 -->
          <_>
            <!-- root node -->
            <feature>
              <rects>
                <_>
                  14 14 2 2 -1.</_>
                <_>
                  14 14 1 1 2.</_>
                <_>
                  15 15 1 1 2.</_></rects>
              <tilted>0</tilted></feature>
            <threshold>-9.8575151059776545e-004</threshold>
            <left_val>6.9470697641372681e-001</left_val>
            <right_val>-6.8335540592670441e-002</right_val></_></_>
        <_>
          <!-- tree 5 -->
          <_>
            <!-- root node -->
            <feature>
              <rects>
                <_>
                  9 15 12 2 -1.</_>
                <_>
                  15 15 6 1 2.</_>
                <_>
                  9 16 6 1 2.</_></rects>
              <tilted>0</tilted></feature>
            <threshold>-6.3507999293506145e-003</threshold>
            <left_val>5.3576672077178955e-001</left_val>
            <right_val>-1.2903270125389099e-001</right_val></_></_>
        <_>
          <!-- tree 6 -->
          <_>
            <!-- root node -->
            <feature>
              <rects>
                <_>
                  13 12 1 6 -1.</_>
                <_>
                  13 14 1 2 3.</_></rects>
              <tilted>0</tilted></feature>
            <threshold>-6.6314898431301117e-003</threshold>
            <left_val>7.3934018611907959e-001</left_val>
            <right_val>-1.3222919404506683e-001</right_val></_></_>
        <_>
          <!-- tree 7 -->
          <_>
            <!-- root node -->
            <feature>
              <rects>
                <_>
                  12 12 6 1 -1.</_>
                <_>
                  14 12 2 1 3.</_></rects>
              <tilted>0</tilted></feature>
            <threshold>6.2029082328081131e-003</threshold>
            <left_val>-1.0095769912004471e-001</left_val>
            <right_val>6.4937627315521240e-001</right_val></_></_>
        <_>
          <!-- tree 8 -->
          <_>
            <!-- root node -->
            <feature>
              <rects>
                <_>
                  13 12 3 1 -1.</_>
                <_>
                  14 12 1 1 3.</_></rects>
              <tilted>0</tilted></feature>
            <threshold>-1.2642729561775923e-003</threshold>
            <left_val>5.8936637639999390e-001</left_val>
            <right_val>-1.1910539865493774e-001</right_val></_></_>
        <_>
          <!-- tree 9 -->
          <_>
            <!-- root node -->
            <feature>
              <rects>
                <_>
                  15 14 1 6 -1.</_>
                <_>
                  15 16 1 2 3.</_></rects>
              <tilted>0</tilted></feature>
            <threshold>-6.6629908978939056e-003</threshold>
            <left_val>7.1472680568695068e-001</left_val>
            <right_val>-7.2962813079357147e-002</right_val></_></_>
        <_>
          <!-- tree 10 -->
          <_>
            <!-- root node -->
            <feature>
              <rects>
                <_>
                  10 8 10 15 -1.</_>
                <_>
                  10 13 10 5 3.</_></rects>
              <tilted>0</tilted></feature>
            <threshold>8.1444837152957916e-002</threshold>
            <left_val>-1.4451210200786591e-001</left_val>
            <right_val>4.0492698550224304e-001</right_val></_></_>
        <_>
          <!-- tree 11 -->
          <_>
            <!-- root node -->
            <feature>
              <rects>
                <_>
                  12 14 6 1 -1.</_>
                <_>
                  14 14 2 1 3.</_></rects>
              <tilted>0</tilted></feature>
            <threshold>-5.4024048149585724e-003</threshold>
            <left_val>6.1952912807464600e-001</left_val>
            <right_val>-1.0617840290069580e-001</right_val></_></_>
        <_>
          <!-- tree 12 -->
          <_>
            <!-- root node -->
            <feature>
              <rects>
                <_>
                  14 10 2 8 -1.</_>
                <_>
                  14 10 1 4 2.</_>
                <_>
                  15 14 1 4 2.</_></rects>
              <tilted>0</tilted></feature>
            <threshold>5.3809550590813160e-003</threshold>
            <left_val>-8.8762849569320679e-002</left_val>
            <right_val>5.6401407718658447e-001</right_val></_></_>
        <_>
          <!-- tree 13 -->
          <_>
            <!-- root node -->
            <feature>
              <rects>
                <_>
                  6 26 18 3 -1.</_>
                <_>
                  12 26 6 3 3.</_></rects>
              <tilted>0</tilted></feature>
            <threshold>-2.5552799925208092e-002</threshold>
            <left_val>-6.9688540697097778e-001</left_val>
            <right_val>9.2914856970310211e-002</right_val></_></_>
        <_>
          <!-- tree 14 -->
          <_>
            <!-- root node -->
            <feature>
              <rects>
                <_>
                  2 27 15 2 -1.</_>
                <_>
                  7 27 5 2 3.</_></rects>
              <tilted>0</tilted></feature>
            <threshold>-7.8552281484007835e-003</threshold>
            <left_val>-4.3525999784469604e-001</left_val>
            <right_val>1.1869029700756073e-001</right_val></_></_>
        <_>
          <!-- tree 15 -->
          <_>
            <!-- root node -->
            <feature>
              <rects>
                <_>
                  12 18 6 1 -1.</_>
                <_>
                  14 18 2 1 3.</_></rects>
              <tilted>0</tilted></feature>
            <threshold>-5.4707368835806847e-003</threshold>
            <left_val>5.7276308536529541e-001</left_val>
            <right_val>-8.1606186926364899e-002</right_val></_></_>
        <_>
          <!-- tree 16 -->
          <_>
            <!-- root node -->
            <feature>
              <rects>
                <_>
                  14 15 2 4 -1.</_>
                <_>
                  14 17 2 2 2.</_></rects>
              <tilted>0</tilted></feature>
            <threshold>9.6525046974420547e-003</threshold>
            <left_val>-8.4291122853755951e-002</left_val>
            <right_val>6.0519582033157349e-001</right_val></_></_>
        <_>
          <!-- tree 17 -->
          <_>
            <!-- root node -->
            <feature>
              <rects>
                <_>
                  11 13 9 4 -1.</_>
                <_>
                  14 13 3 4 3.</_></rects>
              <tilted>0</tilted></feature>
            <threshold>2.7226710692048073e-002</threshold>
            <left_val>-9.3312613666057587e-002</left_val>
            <right_val>3.6554980278015137e-001</right_val></_></_>
        <_>
          <!-- tree 18 -->
          <_>
            <!-- root node -->
            <feature>
              <rects>
                <_>
                  13 13 1 6 -1.</_>
                <_>
                  13 15 1 2 3.</_></rects>
              <tilted>0</tilted></feature>
            <threshold>4.3278159573674202e-003</threshold>
            <left_val>-1.3633729517459869e-001</left_val>
            <right_val>4.0063130855560303e-001</right_val></_></_>
        <_>
          <!-- tree 19 -->
          <_>
            <!-- root node -->
            <feature>
              <rects>
                <_>
                  27 16 2 9 -1.</_>
                <_>
                  27 19 2 3 3.</_></rects>
              <tilted>0</tilted></feature>
            <threshold>-6.2712379731237888e-003</threshold>
            <left_val>-4.9742430448532104e-001</left_val>
            <right_val>9.0355686843395233e-002</right_val></_></_>
        <_>
          <!-- tree 20 -->
          <_>
            <!-- root node -->
            <feature>
              <rects>
                <_>
                  1 16 2 9 -1.</_>
                <_>
                  1 19 2 3 3.</_></rects>
              <tilted>0</tilted></feature>
            <threshold>-4.2597898282110691e-003</threshold>
            <left_val>-4.7351008653640747e-001</left_val>
            <right_val>9.3741163611412048e-002</right_val></_></_>
        <_>
          <!-- tree 21 -->
          <_>
            <!-- root node -->
            <feature>
              <rects>
                <_>
                  27 17 2 4 -1.</_>
                <_>
                  27 19 2 2 2.</_></rects>
              <tilted>0</tilted></feature>
            <threshold>1.8154239514842629e-003</threshold>
            <left_val>9.6674837172031403e-002</left_val>
            <right_val>-4.0888690948486328e-001</right_val></_></_>
        <_>
          <!-- tree 22 -->
          <_>
            <!-- root node -->
            <feature>
              <rects>
                <_>
                  14 14 1 6 -1.</_>
                <_>
                  14 16 1 2 3.</_></rects>
              <tilted>0</tilted></feature>
            <threshold>-5.9904279187321663e-003</threshold>
            <left_val>5.5666977167129517e-001</left_val>
            <right_val>-9.0043760836124420e-002</right_val></_></_>
        <_>
          <!-- tree 23 -->
          <_>
            <!-- root node -->
            <feature>
              <rects>
                <_>
                  27 17 2 4 -1.</_>
                <_>
                  27 19 2 2 2.</_></rects>
              <tilted>0</tilted></feature>
            <threshold>-1.3665710575878620e-003</threshold>
            <left_val>-1.4646449685096741e-001</left_val>
            <right_val>5.7881869375705719e-002</right_val></_></_>
        <_>
          <!-- tree 24 -->
          <_>
            <!-- root node -->
            <feature>
              <rects>
                <_>
                  1 17 2 4 -1.</_>
                <_>
                  1 19 2 2 2.</_></rects>
              <tilted>0</tilted></feature>
            <threshold>2.0562300924211740e-003</threshold>
            <left_val>9.4875052571296692e-002</left_val>
            <right_val>-4.9716800451278687e-001</right_val></_></_>
        <_>
          <!-- tree 25 -->
          <_>
            <!-- root node -->
            <feature>
              <rects>
                <_>
                  18 14 1 3 -1.</_>
                <_>
                  18 15 1 1 3.</_></rects>
              <tilted>0</tilted></feature>
            <threshold>1.2885340256616473e-003</threshold>
            <left_val>-1.0753849893808365e-001</left_val>
            <right_val>4.2052209377288818e-001</right_val></_></_>
        <_>
          <!-- tree 26 -->
          <_>
            <!-- root node -->
            <feature>
              <rects>
                <_>
                  8 7 14 18 -1.</_>
                <_>
                  8 16 14 9 2.</_></rects>
              <tilted>0</tilted></feature>
            <threshold>1.7371730878949165e-002</threshold>
            <left_val>-2.7825430035591125e-001</left_val>
            <right_val>1.6292090713977814e-001</right_val></_></_>
        <_>
          <!-- tree 27 -->
          <_>
            <!-- root node -->
            <feature>
              <rects>
                <_>
                  17 14 3 3 -1.</_>
                <_>
                  17 15 3 1 3.</_></rects>
              <tilted>0</tilted></feature>
            <threshold>-2.6633110828697681e-003</threshold>
            <left_val>3.2409670948982239e-001</left_val>
            <right_val>-9.0367406606674194e-002</right_val></_></_>
        <_>
          <!-- tree 28 -->
          <_>
            <!-- root node -->
            <feature>
              <rects>
                <_>
                  0 11 30 14 -1.</_>
                <_>
                  10 11 10 14 3.</_></rects>
              <tilted>0</tilted></feature>
            <threshold>1.3381689786911011e-001</threshold>
            <left_val>-2.0769430696964264e-001</left_val>
            <right_val>1.9532090425491333e-001</right_val></_></_>
        <_>
          <!-- tree 29 -->
          <_>
            <!-- root node -->
            <feature>
              <rects>
                <_>
                  20 27 6 2 -1.</_>
                <_>
                  20 27 3 2 2.</_></rects>
              <tilted>0</tilted></feature>
            <threshold>-3.8073169998824596e-003</threshold>
            <left_val>-4.3589138984680176e-001</left_val>
            <right_val>6.8584322929382324e-002</right_val></_></_></trees>
      <stage_threshold>-1.4410469532012939e+000</stage_threshold>
      <parent>2</parent>
      <next>-1</next></_>
    <_>
      <!-- stage 4 -->
      <trees>
        <_>
          <!-- tree 0 -->
          <_>
            <!-- root node -->
            <feature>
              <rects>
                <_>
                  13 15 1 6 -1.</_>
                <_>
                  13 17 1 2 3.</_></rects>
              <tilted>0</tilted></feature>
            <threshold>6.5765120089054108e-003</threshold>
            <left_val>-1.1601939797401428e-001</left_val>
            <right_val>6.2038797140121460e-001</right_val></_></_>
        <_>
          <!-- tree 1 -->
          <_>
            <!-- root node -->
            <feature>
              <rects>
                <_>
                  12 17 6 1 -1.</_>
                <_>
                  12 17 3 1 2.</_></rects>
              <tilted>0</tilted></feature>
            <threshold>-8.0762924626469612e-003</threshold>
            <left_val>6.5013998746871948e-001</left_val>
            <right_val>-1.0042040050029755e-001</right_val></_></_>
        <_>
          <!-- tree 2 -->
          <_>
            <!-- root node -->
            <feature>
              <rects>
                <_>
                  12 12 1 9 -1.</_>
                <_>
                  12 15 1 3 3.</_></rects>
              <tilted>0</tilted></feature>
            <threshold>8.4190359339118004e-003</threshold>
            <left_val>-1.3426509499549866e-001</left_val>
            <right_val>4.7461271286010742e-001</right_val></_></_>
        <_>
          <!-- tree 3 -->
          <_>
            <!-- root node -->
            <feature>
              <rects>
                <_>
                  11 10 12 12 -1.</_>
                <_>
                  11 10 6 12 2.</_></rects>
              <tilted>0</tilted></feature>
            <threshold>2.1287940442562103e-002</threshold>
            <left_val>-5.2959859371185303e-002</left_val>
            <right_val>6.1419229954481125e-002</right_val></_></_>
        <_>
          <!-- tree 4 -->
          <_>
            <!-- root node -->
            <feature>
              <rects>
                <_>
                  7 10 12 12 -1.</_>
                <_>
                  13 10 6 12 2.</_></rects>
              <tilted>0</tilted></feature>
            <threshold>1.9267110154032707e-002</threshold>
            <left_val>-4.3887910246849060e-001</left_val>
            <right_val>1.5656539797782898e-001</right_val></_></_>
        <_>
          <!-- tree 5 -->
          <_>
            <!-- root node -->
            <feature>
              <rects>
                <_>
                  9 14 12 2 -1.</_>
                <_>
                  15 14 6 1 2.</_>
                <_>
                  9 15 6 1 2.</_></rects>
              <tilted>0</tilted></feature>
            <threshold>-6.6689918749034405e-003</threshold>
            <left_val>5.5625778436660767e-001</left_val>
            <right_val>-8.1019088625907898e-002</right_val></_></_>
        <_>
          <!-- tree 6 -->
          <_>
            <!-- root node -->
            <feature>
              <rects>
                <_>
                  11 13 6 2 -1.</_>
                <_>
                  13 13 2 2 3.</_></rects>
              <tilted>0</tilted></feature>
            <threshold>-8.1324493512511253e-003</threshold>
            <left_val>5.3482860326766968e-001</left_val>
            <right_val>-1.0806419700384140e-001</right_val></_></_>
        <_>
          <!-- tree 7 -->
          <_>
            <!-- root node -->
            <feature>
              <rects>
                <_>
                  14 11 2 4 -1.</_>
                <_>
                  15 11 1 2 2.</_>
                <_>
                  14 13 1 2 2.</_></rects>
              <tilted>0</tilted></feature>
            <threshold>2.3266479838639498e-003</threshold>
            <left_val>-1.1683479696512222e-001</left_val>
            <right_val>5.8804821968078613e-001</right_val></_></_>
        <_>
          <!-- tree 8 -->
          <_>
            <!-- root node -->
            <feature>
              <rects>
                <_>
                  14 12 2 1 -1.</_>
                <_>
                  15 12 1 1 2.</_></rects>
              <tilted>0</tilted></feature>
            <threshold>-9.4858597731217742e-004</threshold>
            <left_val>5.7223367691040039e-001</left_val>
            <right_val>-1.0324499756097794e-001</right_val></_></_>
        <_>
          <!-- tree 9 -->
          <_>
            <!-- root node -->
            <feature>
              <rects>
                <_>
                  7 9 16 9 -1.</_>
                <_>
                  7 9 8 9 2.</_></rects>
              <tilted>0</tilted></feature>
            <threshold>-7.7575378119945526e-002</threshold>
            <left_val>-2.6806211471557617e-001</left_val>
            <right_val>5.1839690655469894e-002</right_val></_></_>
        <_>
          <!-- tree 10 -->
          <_>
            <!-- root node -->
            <feature>
              <rects>
                <_>
                  9 16 12 2 -1.</_>
                <_>
                  9 16 6 1 2.</_>
                <_>
                  15 17 6 1 2.</_></rects>
              <tilted>0</tilted></feature>
            <threshold>7.0127812214195728e-003</threshold>
            <left_val>-9.6391223371028900e-002</left_val>
            <right_val>4.9004051089286804e-001</right_val></_></_>
        <_>
          <!-- tree 11 -->
          <_>
            <!-- root node -->
            <feature>
              <rects>
                <_>
                  10 11 10 4 -1.</_>
                <_>
                  15 11 5 2 2.</_>
                <_>
                  10 13 5 2 2.</_></rects>
              <tilted>0</tilted></feature>
            <threshold>-1.6720600426197052e-002</threshold>
            <left_val>5.3157627582550049e-001</left_val>
            <right_val>-9.1289199888706207e-002</right_val></_></_>
        <_>
          <!-- tree 12 -->
          <_>
            <!-- root node -->
            <feature>
              <rects>
                <_>
                  0 5 22 24 -1.</_>
                <_>
                  0 13 22 8 3.</_></rects>
              <tilted>0</tilted></feature>
            <threshold>1.0151209682226181e-001</threshold>
            <left_val>-2.3297409713268280e-001</left_val>
            <right_val>1.9994130730628967e-001</right_val></_></_>
        <_>
          <!-- tree 13 -->
          <_>
            <!-- root node -->
            <feature>
              <rects>
                <_>
                  24 19 5 9 -1.</_>
                <_>
                  24 22 5 3 3.</_></rects>
              <tilted>0</tilted></feature>
            <threshold>-1.1815830133855343e-002</threshold>
            <left_val>-3.3770099282264709e-001</left_val>
            <right_val>6.6111043095588684e-002</right_val></_></_>
        <_>
          <!-- tree 14 -->
          <_>
            <!-- root node -->
            <feature>
              <rects>
                <_>
                  1 19 5 9 -1.</_>
                <_>
                  1 22 5 3 3.</_></rects>
              <tilted>0</tilted></feature>
            <threshold>-8.8038723915815353e-003</threshold>
            <left_val>-4.7415480017662048e-001</left_val>
            <right_val>1.1161229759454727e-001</right_val></_></_>
        <_>
          <!-- tree 15 -->
          <_>
            <!-- root node -->
            <feature>
              <rects>
                <_>
                  26 17 3 6 -1.</_>
                <_>
                  26 19 3 2 3.</_></rects>
              <tilted>0</tilted></feature>
            <threshold>-4.3559921905398369e-003</threshold>
            <left_val>-3.3957308530807495e-001</left_val>
            <right_val>3.7858199328184128e-002</right_val></_></_>
        <_>
          <!-- tree 16 -->
          <_>
            <!-- root node -->
            <feature>
              <rects>
                <_>
                  14 15 1 3 -1.</_>
                <_>
                  14 16 1 1 3.</_></rects>
              <tilted>0</tilted></feature>
            <threshold>-1.6772310482338071e-003</threshold>
            <left_val>4.7567498683929443e-001</left_val>
            <right_val>-8.6378343403339386e-002</right_val></_></_>
        <_>
          <!-- tree 17 -->
          <_>
            <!-- root node -->
            <feature>
              <rects>
                <_>
                  12 18 6 1 -1.</_>
                <_>
                  14 18 2 1 3.</_></rects>
              <tilted>0</tilted></feature>
            <threshold>-5.9415828436613083e-003</threshold>
            <left_val>5.5672657489776611e-001</left_val>
            <right_val>-7.5882956385612488e-002</right_val></_></_>
        <_>
          <!-- tree 18 -->
          <_>
            <!-- root node -->
            <feature>
              <rects>
                <_>
                  1 17 3 6 -1.</_>
                <_>
                  1 19 3 2 3.</_></rects>
              <tilted>0</tilted></feature>
            <threshold>-3.9061401039361954e-003</threshold>
            <left_val>-4.7210448980331421e-001</left_val>
            <right_val>9.0070337057113647e-002</right_val></_></_>
        <_>
          <!-- tree 19 -->
          <_>
            <!-- root node -->
            <feature>
              <rects>
                <_>
                  11 29 12 1 -1.</_>
                <_>
                  15 29 4 1 3.</_></rects>
              <tilted>0</tilted></feature>
            <threshold>9.3816202133893967e-003</threshold>
            <left_val>3.3968340605497360e-002</left_val>
            <right_val>-7.4244189262390137e-001</right_val></_></_>
        <_>
          <!-- tree 20 -->
          <_>
            <!-- root node -->
            <feature>
              <rects>
                <_>
                  12 11 3 1 -1.</_>
                <_>
                  13 11 1 1 3.</_></rects>
              <tilted>0</tilted></feature>
            <threshold>-2.0143089350312948e-003</threshold>
            <left_val>6.2402182817459106e-001</left_val>
            <right_val>-6.8922616541385651e-002</right_val></_></_>
        <_>
          <!-- tree 21 -->
          <_>
            <!-- root node -->
            <feature>
              <rects>
                <_>
                  15 14 1 3 -1.</_>
                <_>
                  15 15 1 1 3.</_></rects>
              <tilted>0</tilted></feature>
            <threshold>-2.3953521158546209e-003</threshold>
            <left_val>4.6192699670791626e-001</left_val>
            <right_val>-4.4634349644184113e-002</right_val></_></_>
        <_>
          <!-- tree 22 -->
          <_>
            <!-- root node -->
            <feature>
              <rects>
                <_>
                  9 16 8 2 -1.</_>
                <_>
                  9 16 4 1 2.</_>
                <_>
                  13 17 4 1 2.</_></rects>
              <tilted>0</tilted></feature>
            <threshold>-5.3922599181532860e-003</threshold>
            <left_val>4.6820178627967834e-001</left_val>
            <right_val>-7.7374950051307678e-002</right_val></_></_>
        <_>
          <!-- tree 23 -->
          <_>
            <!-- root node -->
            <feature>
              <rects>
                <_>
                  0 19 30 7 -1.</_>
                <_>
                  10 19 10 7 3.</_></rects>
              <tilted>0</tilted></feature>
            <threshold>1.6970850527286530e-002</threshold>
            <left_val>-2.7647331357002258e-001</left_val>
            <right_val>1.4859050512313843e-001</right_val></_></_>
        <_>
          <!-- tree 24 -->
          <_>
            <!-- root node -->
            <feature>
              <rects>
                <_>
                  6 2 18 16 -1.</_>
                <_>
                  15 2 9 16 2.</_></rects>
              <tilted>0</tilted></feature>
            <threshold>-1.0368420183658600e-001</threshold>
            <left_val>-6.4554160833358765e-001</left_val>
            <right_val>5.0448939204216003e-002</right_val></_></_>
        <_>
          <!-- tree 25 -->
          <_>
            <!-- root node -->
            <feature>
              <rects>
                <_>
                  24 28 4 2 -1.</_>
                <_>
                  24 29 4 1 2.</_></rects>
              <tilted>0</tilted></feature>
            <threshold>1.5797440428286791e-003</threshold>
            <left_val>4.5565061271190643e-002</left_val>
            <right_val>-4.1699689626693726e-001</right_val></_></_>
        <_>
          <!-- tree 26 -->
          <_>
            <!-- root node -->
            <feature>
              <rects>
                <_>
                  12 16 6 5 -1.</_>
                <_>
                  14 16 2 5 3.</_></rects>
              <tilted>0</tilted></feature>
            <threshold>1.4950949698686600e-002</threshold>
            <left_val>-9.2884801328182220e-002</left_val>
            <right_val>3.7304261326789856e-001</right_val></_></_>
        <_>
          <!-- tree 27 -->
          <_>
            <!-- root node -->
            <feature>
              <rects>
                <_>
                  11 29 12 1 -1.</_>
                <_>
                  15 29 4 1 3.</_></rects>
              <tilted>0</tilted></feature>
            <threshold>-3.6115420516580343e-003</threshold>
            <left_val>-4.0968731045722961e-001</left_val>
            <right_val>8.3280719816684723e-002</right_val></_></_>
        <_>
          <!-- tree 28 -->
          <_>
            <!-- root node -->
            <feature>
              <rects>
                <_>
                  11 11 2 6 -1.</_>
                <_>
                  11 13 2 2 3.</_></rects>
              <tilted>0</tilted></feature>
            <threshold>-1.2212470173835754e-002</threshold>
            <left_val>5.4453372955322266e-001</left_val>
            <right_val>-6.4026236534118652e-002</right_val></_></_>
        <_>
          <!-- tree 29 -->
          <_>
            <!-- root node -->
            <feature>
              <rects>
                <_>
                  17 10 2 9 -1.</_>
                <_>
                  17 13 2 3 3.</_></rects>
              <tilted>0</tilted></feature>
            <threshold>-1.9906319677829742e-002</threshold>
            <left_val>5.1261919736862183e-001</left_val>
            <right_val>-6.8012997508049011e-002</right_val></_></_>
        <_>
          <!-- tree 30 -->
          <_>
            <!-- root node -->
            <feature>
              <rects>
                <_>
                  12 12 6 3 -1.</_>
                <_>
                  14 12 2 3 3.</_></rects>
              <tilted>0</tilted></feature>
            <threshold>-1.0144890286028385e-002</threshold>
            <left_val>4.1092249751091003e-001</left_val>
            <right_val>-7.9376317560672760e-002</right_val></_></_>
        <_>
          <!-- tree 31 -->
          <_>
            <!-- root node -->
            <feature>
              <rects>
                <_>
                  17 12 1 6 -1.</_>
                <_>
                  17 14 1 2 3.</_></rects>
              <tilted>0</tilted></feature>
            <threshold>4.3058330193161964e-003</threshold>
            <left_val>-7.7632442116737366e-002</left_val>
            <right_val>3.1103780865669250e-001</right_val></_></_>
        <_>
          <!-- tree 32 -->
          <_>
            <!-- root node -->
            <feature>
              <rects>
                <_>
                  12 12 1 6 -1.</_>
                <_>
                  12 14 1 2 3.</_></rects>
              <tilted>0</tilted></feature>
            <threshold>4.1851121932268143e-003</threshold>
            <left_val>-9.4135217368602753e-002</left_val>
            <right_val>3.4198930859565735e-001</right_val></_></_>
        <_>
          <!-- tree 33 -->
          <_>
            <!-- root node -->
            <feature>
              <rects>
                <_>
                  28 12 2 2 -1.</_>
                <_>
                  28 13 2 1 2.</_></rects>
              <tilted>0</tilted></feature>
            <threshold>-6.0765142552554607e-004</threshold>
            <left_val>-3.2426351308822632e-001</left_val>
            <right_val>7.2315461933612823e-002</right_val></_></_>
        <_>
          <!-- tree 34 -->
          <_>
            <!-- root node -->
            <feature>
              <rects>
                <_>
                  0 12 2 2 -1.</_>
                <_>
                  0 13 2 1 2.</_></rects>
              <tilted>0</tilted></feature>
            <threshold>-6.6922290716320276e-004</threshold>
            <left_val>-4.2826080322265625e-001</left_val>
            <right_val>7.4803419411182404e-002</right_val></_></_>
        <_>
          <!-- tree 35 -->
          <_>
            <!-- root node -->
            <feature>
              <rects>
                <_>
                  17 12 1 3 -1.</_>
                <_>
                  17 13 1 1 3.</_></rects>
              <tilted>0</tilted></feature>
            <threshold>-1.2551440158858895e-003</threshold>
            <left_val>1.9318409264087677e-001</left_val>
            <right_val>-4.7084871679544449e-002</right_val></_></_>
        <_>
          <!-- tree 36 -->
          <_>
            <!-- root node -->
            <feature>
              <rects>
                <_>
                  12 12 1 3 -1.</_>
                <_>
                  12 13 1 1 3.</_></rects>
              <tilted>0</tilted></feature>
            <threshold>1.1093689827248454e-003</threshold>
            <left_val>-9.0908408164978027e-002</left_val>
            <right_val>3.6775308847427368e-001</right_val></_></_>
        <_>
          <!-- tree 37 -->
          <_>
            <!-- root node -->
            <feature>
              <rects>
                <_>
                  10 1 10 22 -1.</_>
                <_>
                  15 1 5 11 2.</_>
                <_>
                  10 12 5 11 2.</_></rects>
              <tilted>0</tilted></feature>
            <threshold>-1.5647189691662788e-002</threshold>
            <left_val>1.6567659378051758e-001</left_val>
            <right_val>-2.2506949305534363e-001</right_val></_></_>
        <_>
          <!-- tree 38 -->
          <_>
            <!-- root node -->
            <feature>
              <rects>
                <_>
                  1 11 1 4 -1.</_>
                <_>
                  1 13 1 2 2.</_></rects>
              <tilted>0</tilted></feature>
            <threshold>1.1345299426466227e-003</threshold>
            <left_val>7.1861572563648224e-002</left_val>
            <right_val>-4.4424289464950562e-001</right_val></_></_>
        <_>
          <!-- tree 39 -->
          <_>
            <!-- root node -->
            <feature>
              <rects>
                <_>
                  14 10 3 2 -1.</_>
                <_>
                  15 10 1 2 3.</_></rects>
              <tilted>0</tilted></feature>
            <threshold>-3.2077480573207140e-003</threshold>
            <left_val>4.9289470911026001e-001</left_val>
            <right_val>-5.7522181421518326e-002</right_val></_></_>
        <_>
          <!-- tree 40 -->
          <_>
            <!-- root node -->
            <feature>
              <rects>
                <_>
                  8 29 12 1 -1.</_>
                <_>
                  12 29 4 1 3.</_></rects>
              <tilted>0</tilted></feature>
            <threshold>-3.6081098951399326e-003</threshold>
            <left_val>-3.9880231022834778e-001</left_val>
            <right_val>8.0952771008014679e-002</right_val></_></_></trees>
      <stage_threshold>-1.4518979787826538e+000</stage_threshold>
      <parent>3</parent>
      <next>-1</next></_>
    <_>
      <!-- stage 5 -->
      <trees>
        <_>
          <!-- tree 0 -->
          <_>
            <!-- root node -->
            <feature>
              <rects>
                <_>
                  11 12 8 12 -1.</_>
                <_>
                  11 16 8 4 3.</_></rects>
              <tilted>0</tilted></feature>
            <threshold>5.3867001086473465e-002</threshold>
            <left_val>-2.0445770025253296e-001</left_val>
            <right_val>3.2404288649559021e-001</right_val></_></_>
        <_>
          <!-- tree 1 -->
          <_>
            <!-- root node -->
            <feature>
              <rects>
                <_>
                  12 13 6 1 -1.</_>
                <_>
                  14 13 2 1 3.</_></rects>
              <tilted>0</tilted></feature>
            <threshold>5.5898870341479778e-003</threshold>
            <left_val>-1.2041889876127243e-001</left_val>
            <right_val>5.3922611474990845e-001</right_val></_></_>
        <_>
          <!-- tree 2 -->
          <_>
            <!-- root node -->
            <feature>
              <rects>
                <_>
                  12 12 6 8 -1.</_>
                <_>
                  15 12 3 8 2.</_></rects>
              <tilted>0</tilted></feature>
            <threshold>1.9925199449062347e-002</threshold>
            <left_val>-2.5576418638229370e-001</left_val>
            <right_val>2.8163281083106995e-001</right_val></_></_>
        <_>
          <!-- tree 3 -->
          <_>
            <!-- root node -->
            <feature>
              <rects>
                <_>
                  15 10 2 4 -1.</_>
                <_>
                  16 10 1 2 2.</_>
                <_>
                  15 12 1 2 2.</_></rects>
              <tilted>0</tilted></feature>
            <threshold>-2.7049810159951448e-003</threshold>
            <left_val>6.0665142536163330e-001</left_val>
            <right_val>-6.8983793258666992e-002</right_val></_></_>
        <_>
          <!-- tree 4 -->
          <_>
            <!-- root node -->
            <feature>
              <rects>
                <_>
                  12 15 6 2 -1.</_>
                <_>
                  12 15 3 1 2.</_>
                <_>
                  15 16 3 1 2.</_></rects>
              <tilted>0</tilted></feature>
            <threshold>4.7870120033621788e-003</threshold>
            <left_val>-8.5795126855373383e-002</left_val>
            <right_val>5.5313378572463989e-001</right_val></_></_>
        <_>
          <!-- tree 5 -->
          <_>
            <!-- root node -->
            <feature>
              <rects>
                <_>
                  16 14 2 3 -1.</_>
                <_>
                  16 15 2 1 3.</_></rects>
              <tilted>0</tilted></feature>
            <threshold>3.3301860094070435e-003</threshold>
            <left_val>-7.1660540997982025e-002</left_val>
            <right_val>4.5718580484390259e-001</right_val></_></_>
        <_>
          <!-- tree 6 -->
          <_>
            <!-- root node -->
            <feature>
              <rects>
                <_>
                  12 8 6 15 -1.</_>
                <_>
                  15 8 3 15 2.</_></rects>
              <tilted>0</tilted></feature>
            <threshold>1.6506670415401459e-001</threshold>
            <left_val>7.0490239886566997e-004</left_val>
            <right_val>-1.0232219848632812e+003</right_val></_></_>
        <_>
          <!-- tree 7 -->
          <_>
            <!-- root node -->
            <feature>
              <rects>
                <_>
                  16 14 2 3 -1.</_>
                <_>
                  16 15 2 1 3.</_></rects>
              <tilted>0</tilted></feature>
            <threshold>-2.7402339037507772e-003</threshold>
            <left_val>3.1910741329193115e-001</left_val>
            <right_val>-6.4517572522163391e-002</right_val></_></_>
        <_>
          <!-- tree 8 -->
          <_>
            <!-- root node -->
            <feature>
              <rects>
                <_>
                  12 14 2 3 -1.</_>
                <_>
                  12 15 2 1 3.</_></rects>
              <tilted>0</tilted></feature>
            <threshold>-2.9738170560449362e-003</threshold>
            <left_val>4.7966268658638000e-001</left_val>
            <right_val>-9.2718102037906647e-002</right_val></_></_>
        <_>
          <!-- tree 9 -->
          <_>
            <!-- root node -->
            <feature>
              <rects>
                <_>
                  16 15 3 4 -1.</_>
                <_>
                  16 17 3 2 2.</_></rects>
              <tilted>0</tilted></feature>
            <threshold>1.6744710505008698e-002</threshold>
            <left_val>-2.3757200688123703e-002</left_val>
            <right_val>4.3708088994026184e-001</right_val></_></_>
        <_>
          <!-- tree 10 -->
          <_>
            <!-- root node -->
            <feature>
              <rects>
                <_>
                  11 15 3 4 -1.</_>
                <_>
                  11 17 3 2 2.</_></rects>
              <tilted>0</tilted></feature>
            <threshold>-3.1722378917038441e-003</threshold>
            <left_val>3.0490130186080933e-001</left_val>
            <right_val>-1.7024479806423187e-001</right_val></_></_>
        <_>
          <!-- tree 11 -->
          <_>
            <!-- root node -->
            <feature>
              <rects>
                <_>
                  15 12 3 1 -1.</_>
                <_>
                  16 12 1 1 3.</_></rects>
              <tilted>0</tilted></feature>
            <threshold>-1.4401050284504890e-003</threshold>
            <left_val>5.0412428379058838e-001</left_val>
            <right_val>-5.6899670511484146e-002</right_val></_></_>
        <_>
          <!-- tree 12 -->
          <_>
            <!-- root node -->
            <feature>
              <rects>
                <_>
                  12 12 3 1 -1.</_>
                <_>
                  13 12 1 1 3.</_></rects>
              <tilted>0</tilted></feature>
            <threshold>1.7236080020666122e-003</threshold>
            <left_val>-8.3303481340408325e-002</left_val>
            <right_val>5.5845242738723755e-001</right_val></_></_>
        <_>
          <!-- tree 13 -->
          <_>
            <!-- root node -->
            <feature>
              <rects>
                <_>
                  16 16 2 6 -1.</_>
                <_>
                  16 18 2 2 3.</_></rects>
              <tilted>0</tilted></feature>
            <threshold>7.7380170114338398e-003</threshold>
            <left_val>-5.7610929012298584e-002</left_val>
            <right_val>2.3052099347114563e-001</right_val></_></_>
        <_>
          <!-- tree 14 -->
          <_>
            <!-- root node -->
            <feature>
              <rects>
                <_>
                  7 11 12 15 -1.</_>
                <_>
                  13 11 6 15 2.</_></rects>
              <tilted>0</tilted></feature>
            <threshold>2.8028080239892006e-002</threshold>
            <left_val>-3.0787068605422974e-001</left_val>
            <right_val>1.3807600736618042e-001</right_val></_></_>
        <_>
          <!-- tree 15 -->
          <_>
            <!-- root node -->
            <feature>
              <rects>
                <_>
                  13 18 4 1 -1.</_>
                <_>
                  13 18 2 1 2.</_></rects>
              <tilted>0</tilted></feature>
            <threshold>1.8065229523926973e-003</threshold>
            <left_val>-8.6505927145481110e-002</left_val>
            <right_val>4.4377970695495605e-001</right_val></_></_>
        <_>
          <!-- tree 16 -->
          <_>
            <!-- root node -->
            <feature>
              <rects>
                <_>
                  11 11 6 2 -1.</_>
                <_>
                  13 11 2 2 3.</_></rects>
              <tilted>0</tilted></feature>
            <threshold>-6.8443669006228447e-003</threshold>
            <left_val>4.2736938595771790e-001</left_val>
            <right_val>-8.6620442569255829e-002</right_val></_></_>
        <_>
          <!-- tree 17 -->
          <_>
            <!-- root node -->
            <feature>
              <rects>
                <_>
                  14 28 14 2 -1.</_>
                <_>
                  14 29 14 1 2.</_></rects>
              <tilted>0</tilted></feature>
            <threshold>2.1519770380109549e-003</threshold>
            <left_val>6.3657052814960480e-002</left_val>
            <right_val>-3.5988080501556396e-001</right_val></_></_>
        <_>
          <!-- tree 18 -->
          <_>
            <!-- root node -->
            <feature>
              <rects>
                <_>
                  8 7 14 14 -1.</_>
                <_>
                  8 14 14 7 2.</_></rects>
              <tilted>0</tilted></feature>
            <threshold>2.3073960095643997e-002</threshold>
            <left_val>-3.0424889922142029e-001</left_val>
            <right_val>1.2061340361833572e-001</right_val></_></_>
        <_>
          <!-- tree 19 -->
          <_>
            <!-- root node -->
            <feature>
              <rects>
                <_>
                  17 10 1 6 -1.</_>
                <_>
                  17 12 1 2 3.</_></rects>
              <tilted>0</tilted></feature>
            <threshold>-4.0261931717395782e-003</threshold>
            <left_val>3.0957549810409546e-001</left_val>
            <right_val>-1.1683359742164612e-001</right_val></_></_>
        <_>
          <!-- tree 20 -->
          <_>
            <!-- root node -->
            <feature>
              <rects>
                <_>
                  12 10 1 6 -1.</_>
                <_>
                  12 12 1 2 3.</_></rects>
              <tilted>0</tilted></feature>
            <threshold>3.0309821013361216e-003</threshold>
            <left_val>-9.6680752933025360e-002</left_val>
            <right_val>3.9078301191329956e-001</right_val></_></_>
        <_>
          <!-- tree 21 -->
          <_>
            <!-- root node -->
            <feature>
              <rects>
                <_>
                  12 16 6 2 -1.</_>
                <_>
                  14 16 2 2 3.</_></rects>
              <tilted>0</tilted></feature>
            <threshold>-1.0477339848875999e-002</threshold>
            <left_val>4.9412640929222107e-001</left_val>
            <right_val>-7.1193888783454895e-002</right_val></_></_>
        <_>
          <!-- tree 22 -->
          <_>
            <!-- root node -->
            <feature>
              <rects>
                <_>
                  1 16 3 12 -1.</_>
                <_>
                  1 20 3 4 3.</_></rects>
              <tilted>0</tilted></feature>
            <threshold>-9.8417848348617554e-003</threshold>
            <left_val>-4.5055079460144043e-001</left_val>
            <right_val>9.1241538524627686e-002</right_val></_></_>
        <_>
          <!-- tree 23 -->
          <_>
            <!-- root node -->
            <feature>
              <rects>
                <_>
                  27 8 1 15 -1.</_>
                <_>
                  27 13 1 5 3.</_></rects>
              <tilted>0</tilted></feature>
            <threshold>9.3684494495391846e-003</threshold>
            <left_val>3.4110080450773239e-002</left_val>
            <right_val>-5.7199817895889282e-001</right_val></_></_>
        <_>
          <!-- tree 24 -->
          <_>
            <!-- root node -->
            <feature>
              <rects>
                <_>
                  1 6 2 18 -1.</_>
                <_>
                  1 12 2 6 3.</_></rects>
              <tilted>0</tilted></feature>
            <threshold>-9.3026151880621910e-003</threshold>
            <left_val>-3.6482110619544983e-001</left_val>
            <right_val>9.5888853073120117e-002</right_val></_></_>
        <_>
          <!-- tree 25 -->
          <_>
            <!-- root node -->
            <feature>
              <rects>
                <_>
                  16 16 2 4 -1.</_>
                <_>
                  16 18 2 2 2.</_></rects>
              <tilted>0</tilted></feature>
            <threshold>1.0372039861977100e-002</threshold>
            <left_val>-3.9266668260097504e-002</left_val>
            <right_val>4.6908649802207947e-001</right_val></_></_>
        <_>
          <!-- tree 26 -->
          <_>
            <!-- root node -->
            <feature>
              <rects>
                <_>
                  7 28 10 1 -1.</_>
                <_>
                  12 28 5 1 2.</_></rects>
              <tilted>0</tilted></feature>
            <threshold>2.6456660125404596e-003</threshold>
            <left_val>9.8997190594673157e-002</left_val>
            <right_val>-3.5186108946800232e-001</right_val></_></_>
        <_>
          <!-- tree 27 -->
          <_>
            <!-- root node -->
            <feature>
              <rects>
                <_>
                  8 27 15 3 -1.</_>
                <_>
                  13 27 5 3 3.</_></rects>
              <tilted>0</tilted></feature>
            <threshold>-1.1785889975726604e-002</threshold>
            <left_val>-3.5473820567131042e-001</left_val>
            <right_val>7.2991378605365753e-002</right_val></_></_>
        <_>
          <!-- tree 28 -->
          <_>
            <!-- root node -->
            <feature>
              <rects>
                <_>
                  12 16 1 4 -1.</_>
                <_>
                  12 18 1 2 2.</_></rects>
              <tilted>0</tilted></feature>
            <threshold>6.0228621587157249e-003</threshold>
            <left_val>-5.2760321646928787e-002</left_val>
            <right_val>6.4156287908554077e-001</right_val></_></_>
        <_>
          <!-- tree 29 -->
          <_>
            <!-- root node -->
            <feature>
              <rects>
                <_>
                  16 11 2 6 -1.</_>
                <_>
                  16 13 2 2 3.</_></rects>
              <tilted>0</tilted></feature>
            <threshold>7.3636970482766628e-003</threshold>
            <left_val>-5.7608928531408310e-002</left_val>
            <right_val>2.6582700014114380e-001</right_val></_></_>
        <_>
          <!-- tree 30 -->
          <_>
            <!-- root node -->
            <feature>
              <rects>
                <_>
                  12 11 2 6 -1.</_>
                <_>
                  12 13 2 2 3.</_></rects>
              <tilted>0</tilted></feature>
            <threshold>-1.0973679833114147e-002</threshold>
            <left_val>4.3462190032005310e-001</left_val>
            <right_val>-7.4045866727828979e-002</right_val></_></_>
        <_>
          <!-- tree 31 -->
          <_>
            <!-- root node -->
            <feature>
              <rects>
                <_>
                  17 13 2 3 -1.</_>
                <_>
                  17 14 2 1 3.</_></rects>
              <tilted>0</tilted></feature>
            <threshold>-2.4399450048804283e-003</threshold>
            <left_val>2.8381919860839844e-001</left_val>
            <right_val>-6.0605708509683609e-002</right_val></_></_>
        <_>
          <!-- tree 32 -->
          <_>
            <!-- root node -->
            <feature>
              <rects>
                <_>
                  0 10 30 20 -1.</_>
                <_>
                  10 10 10 20 3.</_></rects>
              <tilted>0</tilted></feature>
            <threshold>1.6875410079956055e-001</threshold>
            <left_val>-1.8323379755020142e-001</left_val>
            <right_val>1.8414500355720520e-001</right_val></_></_>
        <_>
          <!-- tree 33 -->
          <_>
            <!-- root node -->
            <feature>
              <rects>
                <_>
                  20 27 8 2 -1.</_>
                <_>
                  20 27 4 2 2.</_></rects>
              <tilted>0</tilted></feature>
            <threshold>-8.0442372709512711e-003</threshold>
            <left_val>-3.7718531489372253e-001</left_val>
            <right_val>2.9302239418029785e-002</right_val></_></_>
        <_>
          <!-- tree 34 -->
          <_>
            <!-- root node -->
            <feature>
              <rects>
                <_>
                  2 27 8 2 -1.</_>
                <_>
                  6 27 4 2 2.</_></rects>
              <tilted>0</tilted></feature>
            <threshold>3.2732000108808279e-003</threshold>
            <left_val>9.8544277250766754e-002</left_val>
            <right_val>-3.1137350201606750e-001</right_val></_></_>
        <_>
          <!-- tree 35 -->
          <_>
            <!-- root node -->
            <feature>
              <rects>
                <_>
                  12 0 10 2 -1.</_>
                <_>
                  12 1 10 1 2.</_></rects>
              <tilted>0</tilted></feature>
            <threshold>-4.2370860464870930e-003</threshold>
            <left_val>-5.7362598180770874e-001</left_val>
            <right_val>3.8231890648603439e-002</right_val></_></_>
        <_>
          <!-- tree 36 -->
          <_>
            <!-- root node -->
            <feature>
              <rects>
                <_>
                  11 13 2 3 -1.</_>
                <_>
                  11 14 2 1 3.</_></rects>
              <tilted>0</tilted></feature>
            <threshold>2.7906580362468958e-003</threshold>
            <left_val>-7.5768798589706421e-002</left_val>
            <right_val>4.0691310167312622e-001</right_val></_></_>
        <_>
          <!-- tree 37 -->
          <_>
            <!-- root node -->
            <feature>
              <rects>
                <_>
                  14 21 3 1 -1.</_>
                <_>
                  15 21 1 1 3.</_></rects>
              <tilted>0</tilted></feature>
            <threshold>1.0253039654344320e-003</threshold>
            <left_val>-5.9091009199619293e-002</left_val>
            <right_val>3.3711779117584229e-001</right_val></_></_>
        <_>
          <!-- tree 38 -->
          <_>
            <!-- root node -->
            <feature>
              <rects>
                <_>
                  14 15 1 9 -1.</_>
                <_>
                  14 18 1 3 3.</_></rects>
              <tilted>0</tilted></feature>
            <threshold>7.8501440584659576e-003</threshold>
            <left_val>-8.9349269866943359e-002</left_val>
            <right_val>3.1024980545043945e-001</right_val></_></_>
        <_>
          <!-- tree 39 -->
          <_>
            <!-- root node -->
            <feature>
              <rects>
                <_>
                  15 16 3 4 -1.</_>
                <_>
                  15 18 3 2 2.</_></rects>
              <tilted>0</tilted></feature>
            <threshold>-2.6458399370312691e-003</threshold>
            <left_val>1.2035930156707764e-001</left_val>
            <right_val>-7.8150391578674316e-002</right_val></_></_>
        <_>
          <!-- tree 40 -->
          <_>
            <!-- root node -->
            <feature>
              <rects>
                <_>
                  10 19 9 1 -1.</_>
                <_>
                  13 19 3 1 3.</_></rects>
              <tilted>0</tilted></feature>
            <threshold>-1.0825949721038342e-002</threshold>
            <left_val>6.1498957872390747e-001</left_val>
            <right_val>-4.6297639608383179e-002</right_val></_></_>
        <_>
          <!-- tree 41 -->
          <_>
            <!-- root node -->
            <feature>
              <rects>
                <_>
                  25 13 5 12 -1.</_>
                <_>
                  25 17 5 4 3.</_></rects>
              <tilted>0</tilted></feature>
            <threshold>-1.9394770264625549e-002</threshold>
            <left_val>-3.5973250865936279e-001</left_val>
            <right_val>5.4894439876079559e-002</right_val></_></_>
        <_>
          <!-- tree 42 -->
          <_>
            <!-- root node -->
            <feature>
              <rects>
                <_>
                  0 1 2 27 -1.</_>
                <_>
                  1 1 1 27 2.</_></rects>
              <tilted>0</tilted></feature>
            <threshold>-6.9853318855166435e-003</threshold>
            <left_val>-6.4643192291259766e-001</left_val>
            <right_val>3.9140630513429642e-002</right_val></_></_>
        <_>
          <!-- tree 43 -->
          <_>
            <!-- root node -->
            <feature>
              <rects>
                <_>
                  16 17 4 2 -1.</_>
                <_>
                  16 18 4 1 2.</_></rects>
              <tilted>0</tilted></feature>
            <threshold>3.2711070962250233e-003</threshold>
            <left_val>-3.3470060676336288e-002</left_val>
            <right_val>1.5099099278450012e-001</right_val></_></_>
        <_>
          <!-- tree 44 -->
          <_>
            <!-- root node -->
            <feature>
              <rects>
                <_>
                  10 17 4 2 -1.</_>
                <_>
                  10 18 4 1 2.</_></rects>
              <tilted>0</tilted></feature>
            <threshold>-1.3523550005629659e-003</threshold>
            <left_val>2.3802159726619720e-001</left_val>
            <right_val>-1.1576650291681290e-001</right_val></_></_>
        <_>
          <!-- tree 45 -->
          <_>
            <!-- root node -->
            <feature>
              <rects>
                <_>
                  25 13 5 12 -1.</_>
                <_>
                  25 17 5 4 3.</_></rects>
              <tilted>0</tilted></feature>
            <threshold>2.1584279835224152e-002</threshold>
            <left_val>3.8867551833391190e-002</left_val>
            <right_val>-2.5146839022636414e-001</right_val></_></_>
        <_>
          <!-- tree 46 -->
          <_>
            <!-- root node -->
            <feature>
              <rects>
                <_>
                  0 12 25 18 -1.</_>
                <_>
                  0 18 25 6 3.</_></rects>
              <tilted>0</tilted></feature>
            <threshold>4.1067339479923248e-002</threshold>
            <left_val>-1.8504670262336731e-001</left_val>
            <right_val>1.5936809778213501e-001</right_val></_></_>
        <_>
          <!-- tree 47 -->
          <_>
            <!-- root node -->
            <feature>
              <rects>
                <_>
                  14 7 12 18 -1.</_>
                <_>
                  14 16 12 9 2.</_></rects>
              <tilted>0</tilted></feature>
            <threshold>1.9385829567909241e-001</threshold>
            <left_val>1.8727349117398262e-002</left_val>
            <right_val>-5.6444662809371948e-001</right_val></_></_>
        <_>
          <!-- tree 48 -->
          <_>
            <!-- root node -->
            <feature>
              <rects>
                <_>
                  14 12 2 6 -1.</_>
                <_>
                  14 12 1 3 2.</_>
                <_>
                  15 15 1 3 2.</_></rects>
              <tilted>0</tilted></feature>
            <threshold>4.8653897829353809e-003</threshold>
            <left_val>-7.1348309516906738e-002</left_val>
            <right_val>3.9579299092292786e-001</right_val></_></_>
        <_>
          <!-- tree 49 -->
          <_>
            <!-- root node -->
            <feature>
              <rects>
                <_>
                  26 14 3 9 -1.</_>
                <_>
                  26 17 3 3 3.</_></rects>
              <tilted>0</tilted></feature>
            <threshold>-8.3282785490155220e-003</threshold>
            <left_val>-2.0808640122413635e-001</left_val>
            <right_val>3.1805381178855896e-002</right_val></_></_>
        <_>
          <!-- tree 50 -->
          <_>
            <!-- root node -->
            <feature>
              <rects>
                <_>
                  1 14 3 9 -1.</_>
                <_>
                  1 17 3 3 3.</_></rects>
              <tilted>0</tilted></feature>
            <threshold>-6.4096059650182724e-003</threshold>
            <left_val>-3.7398460507392883e-001</left_val>
            <right_val>6.8372659385204315e-002</right_val></_></_>
        <_>
          <!-- tree 51 -->
          <_>
            <!-- root node -->
            <feature>
              <rects>
                <_>
                  7 27 18 3 -1.</_>
                <_>
                  7 28 18 1 3.</_></rects>
              <tilted>0</tilted></feature>
            <threshold>3.7479610182344913e-003</threshold>
            <left_val>5.4630640894174576e-002</left_val>
            <right_val>-3.6969509720802307e-001</right_val></_></_>
        <_>
          <!-- tree 52 -->
          <_>
            <!-- root node -->
            <feature>
              <rects>
                <_>
                  7 16 5 3 -1.</_>
                <_>
                  7 17 5 1 3.</_></rects>
              <tilted>0</tilted></feature>
            <threshold>-2.9389960691332817e-003</threshold>
            <left_val>3.3752378821372986e-001</left_val>
            <right_val>-8.0765977501869202e-002</right_val></_></_>
        <_>
          <!-- tree 53 -->
          <_>
            <!-- root node -->
            <feature>
              <rects>
                <_>
                  4 20 22 1 -1.</_>
                <_>
                  4 20 11 1 2.</_></rects>
              <tilted>0</tilted></feature>
            <threshold>1.1883080005645752e-002</threshold>
            <left_val>4.9103248864412308e-002</left_val>
            <right_val>-5.6793332099914551e-001</right_val></_></_>
        <_>
          <!-- tree 54 -->
          <_>
            <!-- root node -->
            <feature>
              <rects>
                <_>
                  4 1 12 1 -1.</_>
                <_>
                  8 1 4 1 3.</_></rects>
              <tilted>0</tilted></feature>
            <threshold>-3.9122048765420914e-003</threshold>
            <left_val>-3.6748760938644409e-001</left_val>
            <right_val>6.6648863255977631e-002</right_val></_></_></trees>
      <stage_threshold>-1.4455779790878296e+000</stage_threshold>
      <parent>4</parent>
      <next>-1</next></_>
    <_>
      <!-- stage 6 -->
      <trees>
        <_>
          <!-- tree 0 -->
          <_>
            <!-- root node -->
            <feature>
              <rects>
                <_>
                  10 11 8 10 -1.</_>
                <_>
                  14 11 4 10 2.</_></rects>
              <tilted>0</tilted></feature>
            <threshold>2.5459660217165947e-002</threshold>
            <left_val>-2.7360889315605164e-001</left_val>
            <right_val>1.9367259740829468e-001</right_val></_></_>
        <_>
          <!-- tree 1 -->
          <_>
            <!-- root node -->
            <feature>
              <rects>
                <_>
                  8 10 22 10 -1.</_>
                <_>
                  19 10 11 5 2.</_>
                <_>
                  8 15 11 5 2.</_></rects>
              <tilted>0</tilted></feature>
            <threshold>2.7994080446660519e-003</threshold>
            <left_val>-1.3983759284019470e-001</left_val>
            <right_val>7.7104248106479645e-002</right_val></_></_>
        <_>
          <!-- tree 2 -->
          <_>
            <!-- root node -->
            <feature>
              <rects>
                <_>
                  3 7 24 8 -1.</_>
                <_>
                  15 7 12 8 2.</_></rects>
              <tilted>0</tilted></feature>
            <threshold>9.6767842769622803e-002</threshold>
            <left_val>8.8290199637413025e-002</left_val>
            <right_val>-6.0429692268371582e-001</right_val></_></_>
        <_>
          <!-- tree 3 -->
          <_>
            <!-- root node -->
            <feature>
              <rects>
                <_>
                  13 4 12 19 -1.</_>
                <_>
                  17 4 4 19 3.</_></rects>
              <tilted>0</tilted></feature>
            <threshold>-1.7066060006618500e-001</threshold>
            <left_val>-9.0899842977523804e-001</left_val>
            <right_val>1.7109189182519913e-002</right_val></_></_>
        <_>
          <!-- tree 4 -->
          <_>
            <!-- root node -->
            <feature>
              <rects>
                <_>
                  4 7 22 14 -1.</_>
                <_>
                  4 7 11 7 2.</_>
                <_>
                  15 14 11 7 2.</_></rects>
              <tilted>0</tilted></feature>
            <threshold>3.0746468901634216e-001</threshold>
            <left_val>6.1304401606321335e-004</left_val>
            <right_val>-1.0509730224609375e+003</right_val></_></_>
        <_>
          <!-- tree 5 -->
          <_>
            <!-- root node -->
            <feature>
              <rects>
                <_>
                  15 14 1 3 -1.</_>
                <_>
                  15 15 1 1 3.</_></rects>
              <tilted>0</tilted></feature>
            <threshold>-2.7709370478987694e-003</threshold>
            <left_val>5.2693772315979004e-001</left_val>
            <right_val>-6.2048789113759995e-002</right_val></_></_>
        <_>
          <!-- tree 6 -->
          <_>
            <!-- root node -->
            <feature>
              <rects>
                <_>
                  13 10 3 2 -1.</_>
                <_>
                  14 10 1 2 3.</_></rects>
              <tilted>0</tilted></feature>
            <threshold>-3.6569240037351847e-003</threshold>
            <left_val>6.0631972551345825e-001</left_val>
            <right_val>-7.7163547277450562e-002</right_val></_></_>
        <_>
          <!-- tree 7 -->
          <_>
            <!-- root node -->
            <feature>
              <rects>
                <_>
                  9 11 14 11 -1.</_>
                <_>
                  9 11 7 11 2.</_></rects>
              <tilted>0</tilted></feature>
            <threshold>-1.5443179756402969e-002</threshold>
            <left_val>8.1046797335147858e-002</left_val>
            <right_val>-5.7831168174743652e-002</right_val></_></_>
        <_>
          <!-- tree 8 -->
          <_>
            <!-- root node -->
            <feature>
              <rects>
                <_>
                  12 11 6 1 -1.</_>
                <_>
                  14 11 2 1 3.</_></rects>
              <tilted>0</tilted></feature>
            <threshold>4.8844260163605213e-003</threshold>
            <left_val>-1.0372559726238251e-001</left_val>
            <right_val>4.7648310661315918e-001</right_val></_></_>
        <_>
          <!-- tree 9 -->
          <_>
            <!-- root node -->
            <feature>
              <rects>
                <_>
                  12 12 6 1 -1.</_>
                <_>
                  14 12 2 1 3.</_></rects>
              <tilted>0</tilted></feature>
            <threshold>-3.7308349274098873e-003</threshold>
            <left_val>3.9206120371818542e-001</left_val>
            <right_val>-1.0125370323657990e-001</right_val></_></_>
        <_>
          <!-- tree 10 -->
          <_>
            <!-- root node -->
            <feature>
              <rects>
                <_>
                  8 14 14 4 -1.</_>
                <_>
                  8 14 7 2 2.</_>
                <_>
                  15 16 7 2 2.</_></rects>
              <tilted>0</tilted></feature>
            <threshold>3.0029369518160820e-002</threshold>
            <left_val>-5.6672800332307816e-002</left_val>
            <right_val>5.1863467693328857e-001</right_val></_></_>
        <_>
          <!-- tree 11 -->
          <_>
            <!-- root node -->
            <feature>
              <rects>
                <_>
                  16 17 2 4 -1.</_>
                <_>
                  16 19 2 2 2.</_></rects>
              <tilted>0</tilted></feature>
            <threshold>-1.6234170179814100e-003</threshold>
            <left_val>1.1392340064048767e-001</left_val>
            <right_val>-1.2687709927558899e-001</right_val></_></_>
        <_>
          <!-- tree 12 -->
          <_>
            <!-- root node -->
            <feature>
              <rects>
                <_>
                  14 15 2 2 -1.</_>
                <_>
                  14 15 1 1 2.</_>
                <_>
                  15 16 1 1 2.</_></rects>
              <tilted>0</tilted></feature>
            <threshold>-8.6662592366337776e-004</threshold>
            <left_val>4.1855049133300781e-001</left_val>
            <right_val>-1.0530609637498856e-001</right_val></_></_>
        <_>
          <!-- tree 13 -->
          <_>
            <!-- root node -->
            <feature>
              <rects>
                <_>
                  18 12 1 12 -1.</_>
                <_>
                  18 16 1 4 3.</_></rects>
              <tilted>0</tilted></feature>
            <threshold>8.5992859676480293e-003</threshold>
            <left_val>-1.1369860172271729e-001</left_val>
            <right_val>1.9055530428886414e-001</right_val></_></_>
        <_>
          <!-- tree 14 -->
          <_>
            <!-- root node -->
            <feature>
              <rects>
                <_>
                  11 12 1 12 -1.</_>
                <_>
                  11 16 1 4 3.</_></rects>
              <tilted>0</tilted></feature>
            <threshold>8.1985648721456528e-003</threshold>
            <left_val>-1.1566530168056488e-001</left_val>
            <right_val>3.6293250322341919e-001</right_val></_></_>
        <_>
          <!-- tree 15 -->
          <_>
            <!-- root node -->
            <feature>
              <rects>
                <_>
                  15 15 4 2 -1.</_>
                <_>
                  15 16 4 1 2.</_></rects>
              <tilted>0</tilted></feature>
            <threshold>-1.1679950403049588e-003</threshold>
            <left_val>1.7934049665927887e-001</left_val>
            <right_val>-8.2325853407382965e-002</right_val></_></_>
        <_>
          <!-- tree 16 -->
          <_>
            <!-- root node -->
            <feature>
              <rects>
                <_>
                  11 14 1 4 -1.</_>
                <_>
                  11 16 1 2 2.</_></rects>
              <tilted>0</tilted></feature>
            <threshold>-8.0188718857243657e-004</threshold>
            <left_val>2.3148469626903534e-001</left_val>
            <right_val>-1.3975180685520172e-001</right_val></_></_>
        <_>
          <!-- tree 17 -->
          <_>
            <!-- root node -->
            <feature>
              <rects>
                <_>
                  12 7 11 18 -1.</_>
                <_>
                  12 16 11 9 2.</_></rects>
              <tilted>0</tilted></feature>
            <threshold>1.9333679229021072e-002</threshold>
            <left_val>-1.8621399998664856e-001</left_val>
            <right_val>9.7439102828502655e-002</right_val></_></_>
        <_>
          <!-- tree 18 -->
          <_>
            <!-- root node -->
            <feature>
              <rects>
                <_>
                  11 15 4 2 -1.</_>
                <_>
                  11 15 2 1 2.</_>
                <_>
                  13 16 2 1 2.</_></rects>
              <tilted>0</tilted></feature>
            <threshold>-1.4534860383719206e-003</threshold>
            <left_val>3.0883601307868958e-001</left_val>
            <right_val>-1.1097899824380875e-001</right_val></_></_>
        <_>
          <!-- tree 19 -->
          <_>
            <!-- root node -->
            <feature>
              <rects>
                <_>
                  28 13 2 6 -1.</_>
                <_>
                  28 15 2 2 3.</_></rects>
              <tilted>0</tilted></feature>
            <threshold>-2.3526849690824747e-003</threshold>
            <left_val>-3.8602221012115479e-001</left_val>
            <right_val>8.7012916803359985e-002</right_val></_></_>
        <_>
          <!-- tree 20 -->
          <_>
            <!-- root node -->
            <feature>
              <rects>
                <_>
                  14 11 2 1 -1.</_>
                <_>
                  15 11 1 1 2.</_></rects>
              <tilted>0</tilted></feature>
            <threshold>-1.1967460159212351e-003</threshold>
            <left_val>4.2946270108222961e-001</left_val>
            <right_val>-7.9874083399772644e-002</right_val></_></_>
        <_>
          <!-- tree 21 -->
          <_>
            <!-- root node -->
            <feature>
              <rects>
                <_>
                  28 13 2 6 -1.</_>
                <_>
                  28 15 2 2 3.</_></rects>
              <tilted>0</tilted></feature>
            <threshold>3.2747660297900438e-003</threshold>
            <left_val>6.3532732427120209e-002</left_val>
            <right_val>-3.9977240562438965e-001</right_val></_></_>
        <_>
          <!-- tree 22 -->
          <_>
            <!-- root node -->
            <feature>
              <rects>
                <_>
                  0 13 2 6 -1.</_>
                <_>
                  0 15 2 2 3.</_></rects>
              <tilted>0</tilted></feature>
            <threshold>-2.8604990802705288e-003</threshold>
            <left_val>-4.4046160578727722e-001</left_val>
            <right_val>6.6429100930690765e-002</right_val></_></_>
        <_>
          <!-- tree 23 -->
          <_>
            <!-- root node -->
            <feature>
              <rects>
                <_>
                  3 6 24 20 -1.</_>
                <_>
                  15 6 12 10 2.</_>
                <_>
                  3 16 12 10 2.</_></rects>
